,0,1,2,3,4,5,6,7,8,9,10,11,12,13,14
0,-4.327722185961642,3.7675911014966053,-8.813788278868357,-19.379953447935026,-0.18052887374518883,1.2755936842465312,-2.356449330453102,6.851359583148295,-3.0191461849720893,29.614874733123116,19.11113459722476,2.4265616791543194,10.693061597168244,3.780167129676221,-2.2873896964756506
1,-3.8040201855133677,3.0345782680319777,-9.900440934625596,-20.83919782873321,1.4359588275225676,-0.2917512083183147,-2.495915859154115,5.987672587317684,-1.3054824188593128,18.650620135267836,17.32822569740341,2.080087343028298,12.81560227436316,3.254182441334479,-3.440127852000816
2,-1.4472208829413722,4.919233785790878,-6.28019388598267,-33.41939163760888,1.1770935027217373,0.8821572714906871,-3.049924727250633,6.141752241996805,-2.728330647914066,18.006492341334535,17.033857287797353,2.299868504903872,12.429679413302534,2.7472883989565853,-3.721482858022877
3,-3.842648311651007,4.799219027643178,-4.195275226545386,-30.32281852058652,-3.771033949578256,-0.48972024534943726,-1.2231139264467958,7.26321343236313,-3.371773729638112,26.216557571320863,13.565851265687218,1.0002547137525168,12.960666703579193,3.983317561032747,-2.3882758674544897
4,-6.277544704746001,6.296127043626076,-4.8765564378949176,-22.25963720616359,-6.256159202357972,0.0966687876686313,-0.8302590618570469,4.756704458742201,-2.9603760878031724,27.58966345456893,10.416950658247504,1.3883125125422975,13.639344675431706,1.0686787227761805,-2.3491855948203018
5,-11.468530784850039,5.566052760519325,-4.904539655024772,-12.325968604095198,-3.9066809671766447,0.9592826565449785,-0.8596018912641634,0.9453565581615613,-4.490110660739739,20.947989069647676,9.834467325055062,3.0202282873335395,12.614098840642217,0.7374927067287371,-1.5199525038896773
6,-11.410258045800536,5.321133397989646,-5.579119193480807,-11.597824898559383,0.6731863401941591,-0.8741967347743974,-0.9477041416377572,1.0211003784282318,-4.374068607790209,21.903110103826997,9.994840357034395,3.0668723497037638,11.69051487662514,-0.9084527117214425,0.13601154785741115
7,-7.395477411973111,4.299444839377799,-10.631055218172655,-10.99123813267542,0.9582466608000102,0.6344947536476606,-1.521329346325963,3.743009014870202,-2.530451491384317,26.338300993896713,4.896509298140476,0.9542197271196966,6.103142430118568,0.7611924997780756,0.7617402803994968
8,-4.2146147448215645,4.591477143117604,-10.813758914727408,-13.077702678919566,0.25665963426573585,0.19081969065556903,-1.4478379173136289,3.634296621276646,-1.5685806295291305,25.931430863963055,4.821690010477493,0.6821674192317428,7.175784983251209,0.6680135247129299,-1.5996038733874525
9,-1.0362965852518382,2.1572927682557137,-6.363320668290699,-22.691975802491434,-1.2234037200229793,1.2000366758385657,-0.7251289842580788,2.531315390978045,-0.7693522596738496,13.301278678537319,3.0711472659414953,0.6599846826258791,6.429836322329591,1.2132431725104227,-0.059264832854268534
10,-2.1156452801232533,1.159501261761607,-1.6740651585098838,-27.255077056583072,-2.293814770256769,-0.2212586311954098,0.0469137728708702,0.5829087756670905,-0.25481768710996816,7.407701943759386,4.956696878254213,0.4343424219920552,4.911167717753599,1.5928620803208533,0.647034069753925
11,-1.0176686920862894,1.3095259411713287,-0.8949532441086517,-12.640466476285061,-0.6569460403467624,0.7339150540622832,-0.013048125361067388,3.3906408352860544,0.7527807502226839,4.965797174909587,4.247220579756619,-0.3044625839671039,4.397906860600816,1.8657162891302783,-0.32113495488656507
12,-2.3670746995916248,1.496522687004173,-0.6328522341181337,-2.64021752720237,-0.5899696992486806,0.9043110961108072,-0.9664045429483057,4.418259943436918,-0.9396293303305483,1.5603145379932724,2.5180807124994704,0.45308116084140176,4.110550236084407,0.8781177974252922,-0.4076098248053408
13,-0.25201741400526556,1.5229526342889672,-0.23644769912511876,0.6274898748452388,-0.23931524271315385,0.06712834646586704,-0.2119080290207647,4.175766310430241,0.010836327427439008,0.6885942802020162,-0.0961290515645424,0.8669022627199217,5.15585323519605,-0.319370795581338,0.34444089892019447
14,0.2160480548007609,2.490092735532477,-1.3989054801972274,-0.42519906172718613,-0.42245999017708563,-0.4155239938163349,-0.3155819214659646,1.4257773285528514,-0.6427970307842045,-1.0410112414011978,0.5263863055722243,0.8706130919651005,3.085833326055455,0.19060536027765965,0.012800123853184015
15,0.7738682283913962,3.5341784828830454,-0.25945144212680493,-0.2668224311227516,-0.9787098870467951,-0.6194073426214675,-1.1213315359955716,-0.1570901643129119,0.12830538202073172,0.21968688396686592,0.3433354602665765,0.13331174988074768,2.4429914894511278,0.6356869856932267,0.3922837091058208
16,0.39429138796821445,2.3534793494773627,-0.734673588390033,0.6257317823493329,1.009484981970409,-0.23765960363855224,-1.7655804766427914,0.518345023434968,-0.6139823620810428,-0.8176522557170853,-0.4154989704609723,-0.5555903239269914,-0.7963957587569584,-0.4507943956504252,-0.6284461724051114
17,1.0042314607854825,1.7079264902427305,-0.1263990160654926,0.9301765553917082,0.19590603662128375,0.0075042155341237884,-0.06277246990713303,-0.17483670948290309,0.2878687952289716,-0.738386706801748,-0.4116763307793187,-0.2677926406506437,0.13906726678409076,-0.8275717872778123,0.8707934870123069
18,-1.0248733147985392,1.525544682522209,-2.5111200266459845,0.7366989017826002,0.7888152928066471,-0.15324028840895612,-0.678285688189641,0.1093142865425044,0.5193272701576026,-0.4012463547250409,1.191695818274101,-0.6824406958968432,-0.11835703586639557,-0.6374932473155996,0.9545873609978588
19,-0.5733855117662082,-0.41270459586192443,-3.3374906083390155,0.9199721458478973,-1.1083386913432647,0.30927627427917603,-0.23007610458218763,0.1058400066535842,-0.6209261971422756,0.5736417436546631,2.7338067865378015,0.6831306362487737,0.022693428206788657,0.7803996637939314,0.1514582829910383
20,-1.6748482996642777,0.5251254582013875,-4.370608389397017,0.7941197316858936,-0.8258057985061106,0.7629476008685205,-1.133610297596587,0.6348572701742968,-0.39223342457749766,-0.5753976400503948,4.021737731447788,0.43370455816628034,1.0703372685442816,0.16957727882107307,0.5874846410776782
21,-3.6679585053550436,0.8937190497636205,-15.892160305015686,-0.8544974738634445,-2.5094639701998105,0.2608978861155416,-1.500855621838614,0.4107227549791903,-2.0291898903282757,8.713158056217758,3.899527368276125,0.6800349204282188,3.0112057757712405,1.8892023129945694,1.295544814381246
22,-3.6038936506684336,3.908459345719871,-17.108269792494806,-4.1027700884653715,-3.5389339620414217,0.18635147981311556,-0.0881652760365863,1.1699337230177544,-0.7332081229602805,7.351173971785667,4.017918234163034,0.49767317624183677,3.439308452838275,1.0852273435843487,-0.40836880989861146
23,-6.277580195623601,4.357228465174675,-16.09470575758892,-16.74237256582886,-2.8530153201459267,-0.354291260529003,-1.2036888380129656,3.0409478277563053,-1.9184639400642427,15.557511761978974,5.935275135242769,0.3045145578701647,2.8301561690988652,0.4589627852252116,-0.7919341550191872
24,-6.486936303819595,1.9694489404784254,-10.948108853713016,-27.738472764953762,-1.403780647035673,0.2563762765427377,-0.5267282928542238,2.700014600582412,-0.4662240871566028,14.71406988633303,11.150068105482598,0.32916934606100157,4.856092947754031,1.5079698998233941,-4.020185775073651
25,-5.5630703600123415,1.3658462918511418,-8.381587272272196,-26.997589073149417,-0.9773317497857769,0.8740324138470528,-1.749693974033034,3.5279565655386858,-0.24225436162048175,27.868211385696334,13.55453732436778,0.4780120348033249,5.8715898977614485,-0.25400059866275004,-4.598569750326569
26,-4.525094040685426,3.405626881271492,-8.024750108074981,-21.258298720503003,-1.9684621868665118,1.2842775653893024,-1.2491965377091505,4.746823375097774,-2.0611750115679266,30.100386047923227,17.55660976466299,0.36778435152355105,9.800517511357903,0.4312787833358017,-3.246461305823704
27,-4.499028761301443,4.537378539700603,-11.203160600691152,-18.477702720342563,-2.9714205556037117,1.0530616254132934,-2.869915004824114,9.540234927831786,-1.951520272901958,29.62782830274587,19.20231554907439,2.0354633875591057,10.8403854713053,1.8472521778829505,-2.7854713550666323
28,-5.18458941205495,4.9896245347577,-11.190762934922228,-16.648847942817255,-1.8208570065508003,0.2799741697511595,-2.828242853434178,9.327299581376574,-2.469607570916739,18.87439546254536,21.167793896860648,2.617378998906462,9.848798431408213,2.93184755062824,-1.2748888693619627
29,-4.446544407461395,3.623090490930855,-13.844976025222707,-25.07631624114261,-1.982027471886072,1.3323753052659053,-2.6173797123797975,5.8915327432357,-1.7710006326607213,12.427141078519435,15.55026610243806,2.5184455464957862,9.100239470259325,3.501483176757861,-3.5203967367776063
30,-1.9292281413554542,4.342149966121459,-8.058618247053062,-32.90245958565402,-3.313560349922612,0.09292388870924384,-1.6303536616230125,6.6269424472092435,-2.390484535289779,12.259561223008761,13.616551432527277,2.4023982133135897,10.461318606522363,3.119015242734887,-2.0545034929186565
31,-2.426840619671842,3.7629159853027403,-5.520155737324855,-35.21507540977691,-6.661764630176072,-0.08367710388604382,-1.6617536100192687,8.075424159536949,-4.134453637319907,23.864863390951506,12.348896830147291,2.3291437842414195,11.413034681289602,3.9033385245456667,-1.9818824492709932
32,-5.147752803700145,6.972746710700705,-5.147957211197342,-23.957357412575327,-6.1306045097882595,-0.5820787957898749,-3.0743872333172906,3.6243291923624907,-3.923476440614806,32.16757081331595,11.753583929777497,3.6860563177980987,14.181637384175128,3.253912378352271,-2.3580399447947262
33,-9.327715947454665,4.692356786484224,-3.6128125916504006,-17.601646338075305,-2.6028185591948017,-0.3303721271509249,-3.9855608804566334,1.6922038330492974,-4.893802473862122,22.62816234458538,7.452428741269199,3.213916930824231,11.7991192395103,1.7767339010121712,-1.2847103419315242
34,-9.001112923877951,2.339110054082677,-3.556979891371932,-14.08041838082064,0.9298110119020813,0.8238973292044514,-2.9461469087218526,0.37525771468469404,-2.6819129935456694,18.963261621274494,6.530507376679327,2.108080575446021,11.254559754222397,2.6882926233290245,0.28491960216496043
35,-3.7356900212445834,1.7993729191501526,-10.141400495219742,-11.549626984234324,-0.9456728414210362,-0.2311199789624299,-0.2872627696817225,4.331664569036023,-1.5514713856541436,24.46789937010003,4.501471176454684,0.5357340690902375,7.527206404335353,1.461672564313771,0.18270545889864412
36,-3.4590874600819532,3.8375495392126187,-9.730041515680645,-14.983456132530103,-0.49684531971010193,-0.6122698585528807,-0.15739862244168223,4.290680287357743,-2.3964110655122184,20.05426738015606,0.323204462267364,2.0801743075480292,7.709851478073711,1.5711806717846493,-0.06863629317515146
37,-2.7043304681074454,2.8427523200835774,-3.7424698101625884,-25.97830814251156,-2.272385854788794,0.10539193245479878,-0.13099229740249063,2.4807408555588877,-1.7221654275094402,17.883503684181257,1.421150287715321,1.4713943482925997,7.266805022378627,1.5573741542178539,-0.7957875851691352
38,-0.8309579144335624,0.26423560210047176,0.16792249296821848,-26.07803061190884,-1.9195943068343475,-0.39210072018368014,-0.7241601043845588,1.1977074492465194,-1.496886553092412,13.457368942186267,3.6097420833639777,0.6294315883276433,5.818913075420276,2.5342185849643952,0.24834351128700813
39,-1.6584734945287964,0.2054722054654291,-1.5044173474103952,-11.168319271165991,-0.6533244531788822,-0.7335515735995012,-0.7071554903475519,5.70797611193412,-0.7705321514882371,7.378288312531089,5.016794379494204,0.16048492587534022,4.841830633095387,0.3483822829149896,0.24995283637208005
40,-1.6564919305536612,0.3029901249153595,-0.9515004684543749,-2.7031523688134538,-0.3641346933841694,-0.5449588007353495,0.8944719421787539,3.836889131463422,-0.8616364426077029,0.37690200615990954,3.8644186050651896,0.1807096590413398,3.158284845699761,0.9311934760963694,-0.7780805735640102
41,-2.183581332568076,0.1468850126146929,-1.3522859014566246,-2.032519885712645,0.030471701433665687,-0.08002385141595489,-0.5029854532079436,5.022241682028146,-0.7982034337517341,0.6746354340395595,-0.6638458997025,-0.3224534797815022,2.9235914479513676,-0.9835979242099079,-0.3592875386521257
42,-0.642565437348664,-0.07352504623355394,-0.7107134469084836,-0.8712299072729949,-0.33185484365769424,0.08730764668249916,0.5330852611672218,1.846512159509564,0.01801022297459276,-0.9629081263872359,0.8602419444414057,0.27196453267467013,0.6924826532349114,0.37811918508587933,0.7305131016261318
43,0.6478408418146275,1.0098184785028277,-0.9189125729100238,0.9585029421406057,0.8984321792794563,-0.07664640629426595,-0.9585447638667165,0.8399655100294556,-0.6809467025279847,-0.6080358185231893,-1.0442456203599078,0.9617951403184186,0.0444425901835762,-0.5645467850776084,-0.845854361108138
44,-0.7186057077190309,2.8660058615249233,-0.571430894953088,0.10086462338131347,0.5420431955307028,0.5874020852458053,0.0228773965654889,0.2254738500347725,-1.0356589507027971,0.2811141973841292,0.597931078817434,0.8133574195734796,0.9143760794676143,-0.3152962997354216,-0.6719133444235378
45,0.8521893176822501,1.2524731209361173,-3.382712652740285,0.35027308276646385,-0.5165318679861263,0.40419891528236424,0.022839506156876355,0.4633960163958145,-0.678558885385025,0.06161149792675703,0.04682299478246682,-0.27320248893026344,1.0234516359954928,-0.06916468623089368,0.7709353541289368
46,0.19060577420811126,3.0706315787423493,-2.3329900327827313,-0.5192073253877514,0.31172412256208365,0.15918906128163207,-0.26319327489121447,-0.10555790385762953,0.5268212004837415,0.833843341665104,1.0498926820898267,-0.7750953620198451,1.3564610726272446,-0.03601007770708807,0.6409973557152021
47,-0.3326858774676055,2.4978003395822705,-3.827850934623396,0.3090291509513735,0.30586226186729726,-0.8694794852478631,-0.4867844929728218,0.033755937325382006,-0.2895728183659031,0.4895792025050534,0.4693241061362192,-0.6141335730284312,-0.08511060802599968,-0.43273300905343326,-0.8631516431843832
48,-1.7202433254129563,1.8058795246036168,-5.8070948028117275,0.6402480452276202,0.15493776294804262,-0.5880412622319204,-0.13336593361156368,-0.10905775679794062,-1.206218910340709,-0.8681905199415273,3.3738279091051524,0.9565331596996249,1.3958287770824978,0.41853734344877624,0.11063482782993733
49,-3.619245522650212,4.679638843928004,-15.853074856709542,0.5883266965476541,-1.8673629196482615,-0.6650933210210559,-0.5075996208823658,1.542292834569045,-1.9870532500147584,5.84538972594741,5.4823595346697935,-0.11352095410645403,1.268844825956716,1.762153054453405,0.6618428539504015
50,-5.449699872877009,4.610856464991302,-17.231488417398243,-4.425773252412782,-3.500052482517747,0.7054632598552195,-0.8399711507012244,1.9010248196949031,-2.9550864481990526,7.237918203404828,6.357166420399139,0.5722502843594979,2.449841507089574,0.09635341520855212,0.10891713086823707
51,-7.461519556737115,5.108896131276189,-16.44661851423573,-13.36624557294069,-3.5081935658611716,0.4194437866590309,-0.5324845166126767,3.1585514632503813,-0.6031371754419159,12.559954737095044,5.725281335044977,-0.3480626850811824,-0.26657047250564303,0.9165418772006861,-1.3976590826252937
52,-6.213168015580717,1.6029344998489734,-13.602946325247313,-27.095878922241305,-4.664274646177515,1.3487739365508937,-1.936838665686407,1.409723187915718,-0.778362932721559,17.034433524375398,8.98166083823375,0.5192927313668323,2.467064291831414,-0.17465426260902772,-3.673220620070583
53,-4.941390459312936,3.004513057179934,-13.405933125136116,-28.582432614444592,-3.6932351583835357,0.21960849441268143,-0.396636815895413,2.0301564078867114,0.46905842336074943,29.378441809797316,12.135189078723934,0.4816846410327831,2.252501806674357,0.5598227412376577,-3.8275676563817376
54,-2.984914295431669,3.326206630690969,-16.988040376743236,-24.8610553407954,-4.846282441478612,0.6066849472397425,-0.47382046708905246,8.337589423982596,-0.7656825159415831,33.05970967362598,15.37573324745096,-0.21632772693043634,8.26966647445281,-0.39895079865693195,-2.423386376578076
55,-4.006547767054817,4.396782668007436,-21.972354941565758,-21.743036401351283,-4.5792676810506965,0.6878203995013916,-0.980609557965737,11.18728420850509,-2.0377066741471017,31.522435893586877,17.96790285293493,2.6695886576085064,11.286642378546098,1.6101133683283677,-0.9181872941371756
56,-4.674201084168514,5.744005313845694,-20.717454758995814,-14.878208008124451,-4.067249060107084,0.06600518689603208,-0.5113404452735744,12.059936846074626,-2.4058671517522194,21.208416138812467,18.046242857010636,3.0438821136204544,8.67573208298809,2.303154897720845,-2.4773231779342835
57,-4.176222168990908,3.4597640705727306,-24.490992368597812,-20.92849423006979,-3.421211448723797,0.14343731773488932,-0.6069228381480423,9.188746469459268,-2.387063774684175,18.763669429865896,10.485894732450841,3.3347076038828356,6.7619608361143815,4.708813971894632,-2.3041819711954945
58,-0.9313352616530519,2.9736324406413255,-19.60592992199451,-27.53327017237836,-5.66648330995551,0.9603115489920258,-1.887852018225523,8.500636864956256,-4.182037378415037,18.18503513813195,13.005730006360709,3.213531146735229,6.146660147227463,3.701792287055537,-3.4270472197139425
59,-2.350936442576228,5.7516324651803545,-18.30542973573828,-30.06358427898371,-5.930851710219784,0.19937397004141022,-2.6020776772660215,6.659712181441486,-4.063473574906583,28.003970379048532,16.830302980136743,2.4839481315483853,7.743468785001887,2.188276791719336,-2.9147026412035713
60,-1.9664447630208048,5.414255964221757,-8.384703836242403,-27.583093317768757,-2.4484702773660434,-0.3603353613902704,-1.9016934032971378,3.0042321041999305,-5.0968550039361915,31.515596321760597,14.32680461434246,1.4300085705708432,9.914625134661486,2.0256329980895913,-2.110701847110016
61,-6.748488524377152,4.1174399679301725,-2.931797543472758,-24.588094750776797,-0.042272406222510356,0.3856002251519999,-3.0450918939913807,1.2982515420318679,-3.540738169251421,28.565766708943933,8.082305183090659,1.5313405391363446,10.583614691522447,1.6372239960158566,-1.3633223048927872
62,-7.706709965877723,0.9834376298247633,-6.972283567688661,-16.764439537909787,0.1600318400328017,0.015120715827131578,-3.6783817020883864,0.926167763221456,-0.6446364483552187,15.214591965496803,6.090422476262428,1.3324504217510134,11.319754133372337,2.198690098919351,-0.8767546901206473
63,-4.201667310734436,1.268346522623819,-9.50514984908743,-20.36616523133943,-2.621377235152787,-0.41088282755561745,-0.631166309584867,4.646891377367535,-0.3578456362860607,18.26399547000699,5.709438899239224,1.647517414247331,5.9153929214275704,2.192539203702712,0.08035500278334723
64,-4.059536725098837,1.9805803290005026,-6.031559757790074,-29.11330494971777,-1.6391659232792486,-0.5642004978359723,0.013258778444360741,4.09577056573241,-1.223972220841603,20.78533104082313,1.781749915111115,1.4678449037388606,6.659704603723549,2.535220105958052,-0.35772313862137184
65,-1.6099728131406097,2.003693307940976,-2.0872552392944645,-30.25134294031808,-2.2378677896605073,1.3303224127905429,-0.3400580606805489,3.5311404851649404,-0.395869253802574,23.042738442867186,2.311367589954978,0.992745403971239,4.039747922169981,3.0633624601971325,-1.047323999115849
66,-0.05466639039028563,0.1358031493270477,-0.7450626660802252,-21.37751603946326,-0.958413398450096,-0.3329473024050209,-0.19315689361104846,5.7508376768058636,-1.7900925900194675,15.32091621383877,4.586356622144305,0.6577946847328378,3.5408817395686585,1.2860318676423756,-0.6765073520038534
67,-0.8695433709573648,0.6522879483875917,-0.9178906573038792,-5.583772995665992,-0.42000322736612383,0.21851978386889134,0.44268258481234335,4.946280907616254,-0.2383188326008283,8.237862502216162,4.989012496674346,-0.8531757345764736,1.0193188901186387,-0.20572097310250764,-0.0163899324558276
68,-0.866644451722153,0.21696619171996187,0.5841441251163214,-0.6438172683542549,-0.6609985663183153,0.41376718554676684,-0.29225202283350715,4.765781472667676,-0.5187738511057151,-0.08103575584104694,4.110064626955433,-0.15786296344909206,-0.5382957541909651,0.8245014700372609,-0.706446341665619
69,-2.066052572213752,-0.7855781957767937,0.6090315458858204,-0.7065485698828342,-0.0908209991760699,-0.7676977949377531,0.7861776381161587,2.490826108167057,-0.6271645261389649,-0.5476410608822837,-0.9238586426162357,0.8949261931928135,-0.34536534328820656,-0.45245622269985475,-0.5398908971908885
70,-0.341459858396185,0.09103100058580343,1.0604610236953105,0.12415508612259596,-0.5017053881328842,-0.3188065545258553,0.6745171215814383,-0.5922377206832027,-0.8185567489672405,-0.6764203804405926,-0.7701109699757415,-0.5292376654782459,-0.007241107492977815,0.6263099273687663,-0.9271139383867509
71,0.7717174826225617,-0.09249106006503549,-0.16831864087371523,1.12779420136776,-0.8848449789820614,-0.5004632852010606,0.19705430623298856,-0.18654957124264543,-2.5066398185462733,-0.6213288019321851,-0.8335850373182243,0.023636444378014425,-0.057022898424850484,-0.52461872610228,-0.3547775900126348
72,-0.41958551606369804,0.47102572749719107,-2.320985602803582,0.20176920072789456,-0.6357197901737999,-0.41860023450538625,0.43563638715910896,-0.3281224706340998,-0.7815767367154229,0.1180098164914257,0.7041237880655543,0.8271736559193141,0.7068456949950587,-0.4315364698703456,-0.9847349394637521
73,0.4667994513423372,0.5736105105987195,-4.191270768059083,0.05934700710595828,-0.18272356449416194,0.8710761590921419,0.6673217598274838,-0.2666923516643015,-0.04217299361585139,-0.05178296766213599,-0.4108000285240674,-0.20972992391322298,0.7716656943557535,0.03453480108240856,0.33346990451450087
74,-0.8008965020461255,0.8880540578467593,-5.80242927905043,-0.45271045403517063,-0.4433958808848173,-0.48622454504038515,-0.31293788732330874,0.00269189585810764,0.36541912761043693,0.19433711969246023,1.4338795204894044,0.5569718602314111,0.4127384260954865,0.6675797794855491,0.07886323917436842
75,0.23271277385935385,2.214459918315935,-4.535779281070885,-0.2055689407050788,0.3185699757699031,0.5664878297681661,-0.29302105543213,-0.851226139810891,0.49407095368398235,0.4530911066891703,0.653164030563075,-0.37585336317014806,0.03426277884020168,1.6894121803600866,0.8057629294999413
76,-4.697941098655319,2.6891152855496556,-12.503792598275613,-0.1926075530319097,-0.3545368774068743,0.8912808790745378,0.9036041725709317,0.7297633853615819,-1.8859233457999718,-0.30821004691420484,3.463394141341185,-0.31102848569508035,1.3416703949397286,1.093704396175926,0.679388841146759
77,-4.924455173224679,5.6013948417466,-20.805295051770873,-0.8650615795058815,-0.6152476229933891,-0.3312707932142439,0.8132265669030919,2.9924204803287435,-2.758194392691978,1.0996289927348335,6.49824665039482,0.4264017834325487,-0.6149168615935681,0.6077747561937956,1.3826163224952226
78,-5.752618455554563,6.285791286938115,-20.84508831792079,-1.250122038413315,-1.1292056821210397,0.871253902440149,-1.0791456869983433,3.19751083209407,-2.168035599256539,6.9205088872949085,7.747840987180139,0.41811099126608986,0.16911220384823433,0.7636273637459945,0.03386122433026556
79,-7.079048895068862,4.5483990144126345,-18.786241462613983,-12.86290438222087,-2.2056523259939462,0.5479115803763365,-0.16120808833259193,2.1041905445675395,-0.23360169861743962,12.672994095263885,7.725723284302703,0.8975622957979671,-0.4556078819125455,0.559810173980866,-0.37720816515702094
80,-4.324231670895753,2.81191375774785,-11.791914185770327,-27.411618649619506,-1.6848276367959718,1.811080188880821,-1.3531954285969476,1.5797387263005622,0.5512567893628855,25.989014391029784,5.397458169638248,-0.6830044891632329,-0.13981666488729283,0.8555146372935171,-1.1488646202191388
81,-0.8704049247722891,2.3765512120693524,-15.772308584336487,-28.55011417792826,-2.2933200323506875,1.4794610909394479,-1.3498003458466097,1.4502773615330238,-0.6762996284638875,36.553514603192205,9.060009690947968,-0.2817501638761549,1.9701727394828232,-0.21718525883644363,-1.602223591924255
82,-3.058333981310029,3.145292846619987,-16.826381900101723,-27.33460288190767,-3.2446429324936035,2.077993274846871,-0.40518276815112086,8.276495373647373,-0.05384286651152059,34.96967276461394,13.74539107815692,-0.3237243465979689,6.4647035188540425,0.7236987681854529,0.32445196979664365
83,-4.396348550913785,2.7411224624969215,-29.91990320273606,-20.513059194453977,-2.317502177726605,0.5236443769437256,-0.5389740303894568,13.140139492000717,-0.878581242690295,34.79925453596667,17.100253288602932,1.8618064797687275,9.774286517697284,-0.1971810181536013,-0.9274278256695923
84,-7.7081835994089225,2.3546756513250893,-33.79920763379202,-16.281335679047633,-2.514379356975358,1.978084837201472,-1.755615292455579,13.462714323593204,-3.3214441723127477,22.01422573741315,16.93868203694527,2.9543378587948474,7.660094217121882,2.2440737649216382,-2.78978551385741
85,-5.258479926316248,4.432664342647477,-31.945275335373363,-17.165449484350287,-5.851826189754156,1.0410276249349213,-1.158073151010554,12.631731221718441,-3.3845990923150646,21.234705966445816,13.432497207800335,1.7937312760767052,6.4254462193268616,3.108937192873737,-2.3291549435955705
86,-1.058226216192618,4.2817813340714945,-23.74944802634879,-18.176859405786438,-7.091010190588842,0.5922479058744472,-1.8325683130572263,11.408856469217323,-5.557359619689414,25.741815172887,12.286576936509048,2.543110196414444,7.147356071916482,3.354309673122841,-3.598324320847778
87,-0.2834407547555513,3.746449242452701,-21.711235923101967,-16.930123895409544,-5.965775670338623,-0.43282375016175306,-0.9737749573104857,4.108085244530325,-4.136792423788346,25.983354160475656,18.117935146309698,2.17486236152583,7.730910191296876,2.4197305493675803,-3.1391288520156864
88,-3.3237250215564362,4.05875816033495,-15.821821010369163,-21.154926466089787,-0.3250452211717224,-0.19315195177309658,-2.7445939045343524,3.0235750918735227,-2.575437561647012,28.317038544016455,12.73492544385835,1.3818240719840944,4.462481743136748,2.655073421461596,-0.6018251728996884
89,-6.86499414632186,1.7470753113954274,-15.516339950863145,-19.616631824110204,0.36458990917474615,0.3743940343403834,-3.1494013323771073,3.0396400731282682,-2.0837979134273175,18.10052666041564,9.574979023318598,1.522182752765972,6.902414651327344,2.0435954063652733,-0.02372541717681742
90,-6.180421276793833,-0.5140246806832591,-12.93479810271126,-15.307171011216468,-1.0594420084016487,-0.7296206588989507,-3.234810332703084,3.227185006353526,-0.2973063547983549,8.268027219938329,7.173979373500084,0.9835044801622247,8.942824759337402,3.0433772041585794,-0.908262098652586
91,-4.662046919750812,-0.7157893222912757,-7.829456347791017,-26.00447586741436,-2.1823211120752477,0.13237278729177965,-0.005229523070827025,5.340845237686704,0.04133095809086168,9.816305783203196,7.459423099977287,0.6700982668974746,1.675698499613297,3.190287619519675,0.4733595172588273
92,-3.6098158737996586,1.6513156405771452,-3.3607894153011415,-24.088056764781058,-3.0412247045617375,-0.4980787323602491,-1.2874436461727472,7.435337500515534,0.4518440070281254,15.116350280419901,4.734813462362629,0.21500883102843082,0.845464878670352,1.34997453110286,0.3952387488367144
93,-2.0197714042479014,1.2056670269847207,-2.209021158098791,-18.750190287007914,-2.364989358610031,-0.30172994067616704,-1.0159539976576002,5.625410778434126,-0.9852862049731727,20.240490410555246,4.966196262126548,-0.7147290054218336,0.2224641639804478,2.720776804814321,-0.22315384102398367
94,0.7281820839558637,0.5660339653153765,-0.43574967389546926,-0.8678726402839223,0.47734267411104947,0.5076687860998801,-0.6283136805949511,4.413837437983982,-1.3284441557409759,11.183680110544177,3.8631133055834734,0.9400207654925794,-0.5983897900220938,-0.37513904037344364,0.6165511710077584
95,0.9482936711238878,0.7666454786021587,-1.142864239552825,-0.29068439694353604,-0.5769739703775252,-1.0112741517872466,0.300804850755226,3.876659754493984,-0.10422701937002843,6.462385412589226,4.089980513617524,0.8381484549345122,-0.9833630349944064,0.39406216300678526,-0.8088667259877096
96,0.4398391742471633,-0.9769303302676305,-0.7730725067808103,-0.7096864656966959,0.5988416948959708,0.5641341874211319,0.9685024185396475,2.724141864483162,-0.113205768924179,-0.341984751067195,3.5534600064206288,0.9523717716876644,-0.0017040778077262106,0.6605673748003186,-0.9824939954828186
97,-0.446967055252824,-0.2588866644656272,-1.9222964289291533,0.37756042539886103,0.12334994439913737,-0.47196613578702507,-0.1610766052607971,0.401255636103246,-0.020798742786166335,-0.9914888757138014,0.21591636091131258,0.02507650684150133,-0.13309069333973178,-0.45067734934635734,0.7015927522937061
98,-0.7407496486586534,-0.7831744099301036,-2.153094158958014,0.14357540277884348,0.38474370236198185,0.7396068530630779,0.22461703881846193,-0.6873518485266277,-0.9426931465299648,-0.09689123319557563,-0.29122591839167805,0.6200862583091015,0.8335056735252787,0.8693925042769766,-0.6063900044143955
99,0.08532899988010681,0.5692450040126205,-3.2653421304381265,0.26278997522542524,-0.4228777097484566,0.9235578663425233,-0.597857910768536,-0.454616410518679,-0.7654342778864478,-0.7301781499187597,0.4301235823393694,-0.654791469565166,0.24350241794266353,0.5957129502956271,0.10672689532216457
100,0.492895518863666,-0.07078310945125746,-4.441825252417841,0.7528971228677372,0.11653174502507802,-0.5018921974639974,-0.15461621218294877,-0.24006914002927005,-0.9931137066378533,0.5661479512452471,0.13230080211852824,0.1575509061708364,0.3794992189180811,0.06029178090033959,0.03984736836532908
101,0.5279559823987438,-0.5142108840949011,-5.07645103228813,0.8668280707774072,0.01108157891271644,0.5797990269922747,0.5026532515479468,-0.8689674356723632,0.44580718401610536,0.520960950304813,0.42599849228158426,-0.7838030985059956,0.8966011403165792,0.8106427225088142,0.03862519298816719
102,-0.9268353782500888,-0.561649772189734,-6.165565033095363,0.9387425534256479,0.13765424644732632,0.08330785263788099,0.4476166214940801,0.2055704592209176,-0.4904556863267127,0.19235731240762127,2.0512522965504214,-0.11250452486863566,1.4323266304543418,-0.4716297474633555,-0.37816516341110806
103,-3.8733707519970255,0.8919560003685045,-6.357840216993807,-0.7424264749749248,0.951234036135979,0.45935921979554095,-0.6522324846484031,0.9402106297829239,-0.08946662245739434,-0.1449170096365912,3.496477437784718,1.6853025943469409,0.29614846317654986,1.6141744846339596,0.6370698554483939
104,-5.271039124011403,0.7658769709423638,-7.8829829318841895,-1.0241932526163542,0.5689148632084925,0.5034866732920815,0.4692377136717286,1.7927369799032775,-0.8423548149012077,0.422434496957008,4.921657075607408,0.9285282310719372,0.1910749537361991,0.234929126630391,1.0893528060212028
105,-4.150614152653018,2.6766679316972484,-18.229906027508274,-3.6317000103400914,-0.23401688333791296,1.869337188765097,-0.11312426233634193,1.9910186868896627,-1.5040237915228167,0.8348904155137677,6.132813172059034,0.4928451161168335,-0.5775545272044713,-0.07749647673264654,-0.02002475733418485
106,-7.499166480213155,4.925882196563075,-16.547468454952515,-9.106287125444265,-0.6586586572486901,0.8997161383478469,-0.6649207994816914,2.0511960513510714,-0.6396800490995802,-0.3859824379722425,8.169290349069739,0.4426570280716305,-0.2951961099678137,0.45894926419859844,0.42943488337973224
107,-6.318477320338953,2.8266223242034365,-13.350917696519014,-12.113127511608823,0.6579354282250857,1.5196318333987398,-0.3760865846373026,1.8329631012243348,-0.1282009133828787,11.180476571568885,7.2574373311451605,-0.2551448048182121,-0.27105527292172304,-0.8505081088669223,-0.22472046523488148
108,-3.643430934340804,2.9371291237161525,-5.275528572776455,-20.522610065885218,-0.21049193418536782,0.7468863835080757,-1.4087555622758265,1.5386059101702996,-0.0461611008045254,24.385386656938078,8.439358843782255,-0.24724998443897286,0.6441965658276619,0.2755764415059071,-0.3528037623344359
109,-1.5086718399725991,2.7758761662210087,-9.700553583135106,-27.577183674943083,-1.5135938176807155,1.9348210619140784,-0.4646486165649429,2.3981602570368854,-0.6567711119859316,35.7775876152037,8.177150179043482,0.05326898854932913,4.23095811972052,-0.16271400232746303,-0.7674317608974877
110,-1.9625967178229589,0.6711491885649457,-14.35685783349962,-27.44482109088215,-0.763906602532039,0.9946892780713952,0.38860967503811544,7.623673003313543,0.21844499487758307,35.268213100786056,10.290457422258385,-0.4957520531268408,5.51758590167844,-0.6655686321252408,-2.5625547167072864
111,-2.8318137788368265,0.617441616669524,-26.283940970375845,-25.61070338967167,-3.054035788189463,0.9119518168897265,-0.5451003955857048,11.549452640152294,-2.82689355457428,35.567718457917124,16.7930143544898,1.8966182773437137,8.318999371732856,-0.7025923553834372,-3.0329105306741417
112,-5.273896147923219,1.489531822778868,-30.87371351327578,-24.114817613334388,-2.635205916615563,1.954313014691457,-1.0489375230068883,13.096488377057437,-3.749381319938612,28.942409092172998,17.063971826265846,2.746610486111689,6.351399452280139,-0.22345482360265395,-2.726073667937177
113,-6.366887102853048,3.640975911751002,-30.246834730152898,-26.428042325087507,-5.681272927145316,0.9682854709676245,-0.4058654576535714,12.295057247213217,-3.5212200449102666,23.576471725996885,14.646892371804416,0.9856916783228653,8.006934975779377,1.007216171908146,-2.7715384477113885
114,-2.854538841628573,4.711945946190281,-26.30989897701016,-15.951865586775062,-7.262884886289212,2.3704964892605354,-0.3732799855277299,10.716886767137888,-5.1858063484540695,20.86780992533854,13.905854488425708,0.9147396855011267,9.547414619835632,2.4285294462296347,-2.5170428621985765
115,-2.6963334301406974,4.2896229470327345,-25.632979359577938,-13.265485950648989,-4.3884069820555425,1.566071414418259,-1.5482207429259265,6.505759684602023,-4.47819481979849,22.122206051504484,15.498856643649782,-0.3942571956502041,9.58845326142181,3.271147798784411,-1.8030880576230395
116,-4.357154741671019,3.215513290855391,-26.29713812663211,-13.947544036938371,-2.0722681799755556,-0.29634426345329945,-1.2949087594458544,4.787474538209173,-1.1708118825645915,16.71728288877273,15.687453925141783,0.994473876379695,8.448947630938035,2.9154262637685227,-1.0549311495672282
117,-5.767585647530221,0.5141780985626736,-22.059255420441104,-12.154405417515118,-1.9566443779979075,-0.5327411120438247,-1.6453013166734312,3.980451501813844,-1.876569514799934,11.398419556933295,9.918121019474025,1.4684188114275594,8.815672018013398,2.245770686926904,-0.21372727105275519
118,-6.192349727706237,-0.1980533865103063,-20.705061566570166,-15.786077593535476,-1.392677600821836,0.8811196302734302,-2.4821829688343753,6.94760378932965,0.8346043125429098,5.658929108105324,6.255508905776226,0.2293068950126188,3.859976102259675,2.4331035261978764,-0.47759197803312753
119,-4.2407099706718725,-0.27948123454536544,-5.343240966007404,-19.95657430916638,-3.237908804613318,-0.3336478647487769,0.3864833654517439,8.467745365522468,-0.8340171768854083,8.87048740485439,5.148135550213673,1.0980785466700695,0.33545989340940197,1.4345956405556657,0.7193898655162851
120,-2.8976934087999178,2.0035242705286382,-2.138394939059613,-13.821170439029455,-2.4601207781937937,1.1851139417702803,-0.9546670028333292,8.009666237641024,-0.3200720578936719,11.40615920853445,3.445729085223496,0.8364839908997139,1.3409966934533624,1.3194974303522806,0.6088253852304144
121,-1.6273203491264232,1.7693553648046207,-3.4596415855854072,-6.433810153073784,-0.4872455429231677,0.9137818879682729,-0.947469589763432,5.432630843242508,0.9236729833908266,7.5264214788564665,4.438200009970879,-0.45322277357526686,-0.31753377802629124,0.6665327877483658,0.0031646635697691154
122,0.9512598905579827,-0.9525704992820568,-0.27017062835038375,-0.17615056615754232,0.40451012661488583,0.3589966693181584,-0.8780316114960167,3.839352205237391,0.4231260447045663,0.2533498365409057,4.068684475791095,0.9752905576046086,-0.16310361012207336,-0.09944279529401151,-0.15559881449694
123,0.7776059547255041,0.8625071034781091,0.42512753681998516,1.0992754120297326,-0.4540023428849034,-0.5949908141943757,0.6331868825967157,0.5668740633233127,0.4315755090135866,0.3373999326234564,4.736280561864899,-0.5098831615987505,-0.6159278257646895,0.041790569416631104,-0.5618099664589783
124,0.002894524878918517,-0.4262646725191965,-1.0236697431816655,0.9840799123072286,0.3558920459207908,0.9844163002261953,-0.15038820935388478,0.6413809740947567,-0.8002595915089168,-1.1249285754431075,2.8768061758713284,0.9880038026725018,-0.8886156842330432,-0.7133796216871331,0.19970537097453434
125,-0.030193398588932746,-0.859065831155896,-2.987403254396174,-0.5282100021185022,-0.448130114679542,0.7248343843299023,0.7303481171441666,0.7649813643163108,-0.5933519392180013,-0.3512042324087554,-0.2857566902967333,0.7793951560281445,-0.17499511425862185,0.9308999663457085,0.43207156804787733
126,-0.5826777606592151,-0.214195688701028,-4.203373491460936,-0.2924721380630656,0.7561867031869173,-0.6171359606684765,0.4347797525581045,0.31112312751648136,-0.5235949033330204,-0.8082350053551204,0.8316100908336868,0.3050167844661443,-0.28275437178571156,0.5214799415795471,-0.7239805736757371
127,-0.8432006897857323,-0.662824841057962,-1.7152491106101682,0.09053605047263952,-0.9153815580967701,-0.18695118596477006,0.3673911728128313,-0.10504206873227817,-1.6631484263260434,0.14358607085619274,0.24105770368411084,0.6638825549970212,-0.6434849244942059,-0.6754297363547461,0.046106748196828425
128,0.6261451732926632,-0.25497462849305713,-1.9573444232258959,0.5123562761572059,0.15629093072216313,-0.388004004055311,0.28654658210614997,0.5292000693328183,-0.9418851924591563,-1.0791232092158767,0.5307908655476115,-0.42630345765095956,-0.09627149995386566,0.7971325783179883,0.10563412579484832
129,-0.2208133420964158,0.8574475760008704,-1.0978974351046236,0.09051262332491028,-0.3029426429997787,1.6140041267806464,-0.07563134537351662,-0.04128972366870405,-0.22406985008787667,0.4653899166721909,-1.1464821786053943,-0.11013730975844989,1.6676215254707047,-0.42122291646501037,0.2676020061544706
130,-3.0759620222624244,0.13248845609080961,-2.765730593007622,-0.925674583762358,-0.7472748825128386,1.040253176730498,0.9610513751411999,0.9297445816411284,-0.7724854417624967,0.08844851147776135,2.406143249998009,-0.08424959250300124,0.9964851295797876,0.731078540296365,-0.8692082601685542
131,-4.721297098534048,-0.015217435042428073,-3.822105161432524,-3.2816939271930794,0.8355346399963167,1.464364836198828,0.510904188349708,-0.6742424875470583,0.01922353463633797,-0.6232522679177048,3.9438159927384606,0.09314417904403949,1.6195517969623123,1.3260367793575294,0.47552134735057244
132,-4.243001975946881,0.9837340488100985,-3.6622376209174767,-11.660780727938961,0.24160259296007502,1.0532480287568686,0.7765585651017642,0.8294254725310279,-1.709610678947863,0.4660064589590479,7.759055667905803,0.46131003751418453,0.23495413111590058,0.3722840054386001,0.29196126111356385
133,-4.951740854082248,2.2866825664341066,-12.498817417627556,-16.06674381166442,0.2056760166718007,0.7185228129980208,-0.9333853138319743,3.500702651708747,-0.8755532371192161,0.8514687391716911,6.785796881277755,0.8959317241168868,0.9392719604198763,0.8794630838362577,0.14836557586191024
134,-6.20493512582084,1.608180895236018,-13.835043024003065,-13.868377733346895,0.20719187410219403,0.770045614607676,-0.43642537125637126,2.503432172367588,-0.4479115788294248,4.990362360119535,9.104173834747323,-0.2719098351936631,-0.6276371258405984,0.25921208557417424,0.36052576588693075
135,-3.4671531467669032,1.1110062373240583,-14.94805169745714,-14.591065886609167,-0.0952733331497677,0.864424521185458,-0.9320945848131508,2.074433754428777,0.6032081560705157,11.878578205023008,10.07785606702748,0.2898201454892168,-0.17786666479418534,0.1756965455896401,0.5053216661200448
136,-5.522845284520607,-0.45946220857355335,-5.675311197279677,-19.325238371869933,-0.7309319601866997,1.5517263819952194,-0.03562303165347169,2.1346653504418867,0.8448644595057858,17.960504883621493,8.060626963388291,0.6904631805430154,3.5268376196471385,-0.8375994713467511,-0.5830367622082656
137,-3.3676150217910292,0.8753228046473296,-4.308964760531126,-23.843047310383906,0.08575832155544835,0.19962573377056014,0.5873129424282737,3.7476329970400264,0.2676756900329027,26.538891262003666,6.135665585827659,0.841432427654546,6.951615038780988,0.904198918877855,-0.7681919693863317
138,-3.0551088236971102,0.7168850668362972,-13.404993143465314,-27.204231543300573,-1.827040488922317,-0.6138480552282086,-0.3091402701746961,6.400074880499595,-2.934556989104378,30.087660173909406,3.4411878670762683,0.47344036825392066,7.526606852365525,-0.13141557210478486,-2.499678722175345
139,-2.6234320858270435,0.5105349990569428,-24.53230366564892,-29.821122698098772,-4.353474570230077,1.2717591764019056,-1.8236444833658914,7.942135022018722,-1.982035846929728,26.62623527685225,12.067181922474205,1.7867081385748436,8.180027723755641,0.1924268321442546,-3.2635544908776226
140,-4.845286865611221,2.89709701619389,-28.051735873214493,-29.520378388160093,-4.45417655703355,0.5854757712270714,-1.0149445487105901,10.53489517852979,-2.633642145426255,21.610186525987217,12.67510579664425,2.16312016268956,7.779418913958632,-0.6327741505611307,-1.7655012521506905
141,-4.189745924536979,4.783552732666362,-21.80287053534555,-23.520930137914032,-4.763223361965192,0.6275793697370518,-2.3626620082067697,12.790683935752543,-2.7821973240410562,18.912274127767155,14.275688578514279,-0.003518436265526559,11.510173781930156,1.5931865886185916,-2.781778522713275
142,-3.7651154183899367,6.425986638729751,-20.599008055184296,-21.982299587808498,-5.54039072629544,1.424656361538427,-1.2552890789186673,8.816384464193563,-3.3960986231140913,18.235838341873546,10.859835855390415,0.7992280254167614,10.207449787011539,1.3149956095845539,-1.2136057934172044
143,-3.4309500529392634,4.511524087905844,-23.93203375900299,-23.919505126197716,-3.5262057322146063,0.9713432820770782,-1.1105126688135403,6.528621577505086,-0.7798707273338539,12.760841161567706,15.202321574745099,0.8969142844917148,8.8924523776154,2.100487014490982,-0.6937263598571256
144,-5.5727821152494466,2.203692420307116,-26.47685130033008,-23.093985953684953,-1.703917283581339,0.7104630925108348,-1.372586447344803,4.61127524803463,-0.29732888409539904,14.045044298365864,13.399304139870033,1.0807322429727684,8.336259056717044,1.5072009964734145,0.6526303243088414
145,-5.682321238234625,0.7957356862183966,-19.87657589516025,-17.229090992767173,-0.8230839560087806,-0.030429238329107322,-2.714426705435077,4.226291487873133,-1.295982269910628,6.062098857487552,6.456106576292817,0.16894773235692717,6.619578399002128,0.7195940845826867,0.9691096723964376
146,-4.27902158288816,1.0068810734924156,-17.966769388820808,-17.046949242608555,-2.6884874549357023,-0.03822782246298784,-1.340779537363697,5.988638106270986,-1.020818432025733,2.2807366260298867,5.618175879142649,-0.441857127773646,3.1652649892934055,-0.18748921855624145,-0.09961027253871135
147,-3.7271882475425944,2.7903939320149123,0.22687149807489443,-13.91025513116908,-1.1226453368198106,-0.1017557348537732,0.42508766157157435,7.158915032413595,0.621407976056672,6.48559370983598,3.164038205302387,-0.21204029460778082,1.7670930668449591,-0.7511828314445479,-0.8699871218341246
148,-3.878878940853758,2.2658986328202584,-0.7210103160258374,-6.8965034387217115,-1.1741163471758438,0.8389034868555305,-0.5904444115317261,7.301246068201149,0.6478072375251968,8.707967925971596,1.3357944493631657,-0.21131674373755746,0.52468389145203,-0.8656528099744114,-0.6596438392554448
149,-1.4497001375975698,0.13228906746080715,-0.9768112682709502,-0.22500339104484834,-0.5988216939775586,0.41535253092510727,0.18053583146480356,4.842425837213531,0.9022023602733814,5.635046707432253,1.7672948448739856,0.3467286703039981,-0.1765476538127319,0.3993697151237392,0.5125928395007961
150,0.05237525492767714,-0.7331510012553496,-0.9565424936996212,0.2410826317245632,0.46696950201775345,0.502535508360464,-0.9434679354543937,3.287190253093908,-0.8189854738549784,0.5735384554433199,2.7486182475356813,0.26927929918438326,-1.0144399584812678,0.3629658882786434,-0.12396009209213663
151,0.10816053194648495,-0.18916775246055986,-0.6586956954869365,0.5055315042056312,-0.048266052579214375,0.07642169957665201,0.5085597349775499,0.057812044814108794,-0.05547027378250348,0.600548443112613,2.6305046435168276,0.0026691417493016137,0.8232783033572457,-0.7171233911053885,0.6862936395275309
152,-0.5970758773480875,-0.7539560348580228,0.6851969005778511,0.5008561585700468,0.6483857959854954,0.5034384832991624,0.04903601703150373,0.16376659035209265,-0.7543060358114149,-0.8551614452356852,1.0197154171310672,0.48390833035186204,-0.12092090816040577,0.8629975775148971,0.4120949634646962
153,0.9880632164701753,0.048090525746721596,0.3512722941046017,-0.6388259672324313,-0.5160243103285784,-0.11399215367378612,-0.6067534345925508,-1.0032460718598928,0.9764815115369373,0.3180035417018189,-0.4625512047582655,-0.0017197428624638519,-0.42441089425287937,0.22718878595338968,-0.5860219924406871
154,0.8354422211996984,0.6427162110304617,-0.3249354781375844,0.7491057843088959,-0.8095822586114051,-0.32342531125354357,0.49350872701199044,-0.5003891128144489,0.8266764175544913,0.3089428546696451,-0.29492480606906596,-0.2679718476191432,-0.5878319700639163,-0.9795733334630712,-0.7749769274568199
155,0.00884868051116576,-0.264632833026509,0.37161158154220825,0.0893432608050127,-0.9293536761396926,-0.9495676591465032,1.0191880208428978,0.011324820453416762,1.0066804558502385,-0.3863935321477753,0.04450951912143805,0.722265948101112,0.6228061154096806,-0.2171213115093139,0.919639643302651
156,-2.2808738659266656,0.26324706945021314,0.9282793872997467,-1.226799371537657,0.7718351615083828,0.1060695951792327,0.34402869891888593,-0.5053292087644402,-0.7482913136695791,0.28203016219485677,-0.6774976474924609,-0.9127089788673551,0.7115786397217613,0.3912256100607306,-0.4337491869205267
157,-3.1339481399414537,0.7124878746427575,-0.21572539132760532,0.5162439289658088,-0.21358006425780332,0.22330955527130936,0.7040802641728888,-1.0777659088179825,-0.9598727201808438,0.3236114499999609,-0.8282477056990589,0.392068964592181,1.3216177312473372,0.17363821833173687,-0.05765953642636412
158,-4.612058274921775,-0.5888164984936254,0.4114653132725977,-5.366554469263409,0.5966452859574717,1.479070212151914,-0.5643405166396598,-0.224063318212055,-0.11278811764264829,-0.5086952616976645,1.3954123253758066,1.1059003074887634,1.1368747314715035,-0.08361306631778759,0.6235052473123771
159,-5.844705021627129,-0.7920871194100645,-2.3129538854640326,-10.760731386899385,0.7966204912634192,1.6215273951951752,0.3556778424198195,0.4472169884586962,-1.5292011050837941,-0.9404279018900277,4.158972296230992,1.0493276752225473,1.0700469183134187,1.364475870072035,-0.48698938085574595
160,-6.4405255715539695,1.7170057000621872,-3.6178563029198743,-14.717390894235525,0.4038032008089479,1.32471754426413,-0.3015919660321459,1.4337103771549917,-1.4913132442582644,1.0698889604557467,5.277413650288999,0.7397768039428265,0.07610916323327555,0.8013968588668738,1.1645691473529896
161,-4.636446228171687,2.16239568789245,-12.503758776689159,-14.549431467854502,-0.5090239998668777,0.6217149858608653,-1.3816300337038294,-0.10516543626863362,-1.2785652665972795,5.8822358733742535,7.156826433015836,0.7877664000556429,1.58701424601368,-0.5410173744348078,1.2041548616446285
162,-6.933647369403193,1.8630607560340724,-14.586238999496697,-15.424493797058119,-0.3210560426208354,0.4879496945762323,-1.467600085980431,0.9153616208156237,-0.027398154678051734,7.98781643469954,6.278175584851071,0.7050135606564425,1.8897333496860365,-0.004101501865280059,-0.79084790556846
163,-4.38026792453866,0.014578951231318027,-13.803689241640685,-16.473904236000898,-0.03922130741840735,0.2061657676045716,-1.6312312174246189,1.238174490252426,-0.6708531001736746,12.130474419707056,6.980191679077627,-0.05598798748739546,2.249103940519146,0.06487043742161751,-1.7314807616552765
164,-5.291135152571149,-0.15700254802885924,-5.111691934124795,-16.288130452520758,0.5964820876141088,-0.6529143422481535,-1.0493302957657256,-0.044449027288033904,0.2927074183356933,18.23153009256775,6.017044780377313,0.8337267567025589,3.587673999433883,-0.09943599974274124,-2.9357921837843013
165,-2.315975215108417,1.043855689513688,-7.95191084641929,-15.898860909179398,-2.6177573412387147,0.3885624956077609,0.01905738911960919,5.725963242958872,-0.9174818121205323,16.805796064104218,5.571982775508521,1.1286570085869034,4.277146777965227,-0.07290564890669694,-1.223228031376556
166,-2.0282919638790453,-0.26250509051826587,-13.917038072485989,-15.26548114546077,-2.528706054854915,1.079155164203012,-0.81644467860484,5.026296251950126,-2.9236817699780753,17.315211102178154,4.8433289097099195,1.4651683076211164,7.17615148071776,0.05528888981657957,-2.4492272273469036
167,-2.581265388642605,-0.1955895484333629,-18.101478253233907,-19.604721790058974,-2.665041906536791,0.581078714844718,-2.669160391302718,4.927329789202492,-2.9242420306419445,20.352807871680135,11.925528194070866,1.8053271600157668,7.346682747089553,0.24681086762821286,-1.2680982816882846
168,-2.652982116907869,1.3379154217549816,-26.98770992914664,-20.831414620556142,-2.6317518190945366,0.8232725751007954,-1.378075834631442,5.076649684658524,-3.003692562873807,16.086279289673072,13.51595664248241,0.9631478793564112,7.730448982375257,0.6218050681754664,-1.135346469686638
169,-3.1256173319931175,6.314922744183065,-24.16502837915565,-13.369935144553356,-3.00934558859592,1.1797124786315711,-2.9768273932773623,5.89809948626201,-2.1437562460999757,13.14351553784357,15.177693803887538,1.0739561350147366,8.892314690347956,0.5703484042021699,-1.9987203280019867
170,-1.6689797160441517,6.203251494580161,-24.834327278999528,-14.407128311254064,-5.470569357598842,1.9048048686591306,-1.5644738340914357,4.892550512743062,-2.4415512293643316,9.034894234366355,10.217063720340704,-0.1489936696777835,8.087783457858336,1.4832380072457383,0.20675736313379678
171,-3.1037349970787806,3.9399383417359832,-23.049789088020713,-10.416586322962308,-3.5814470775625287,2.351314622851654,-2.8475959523397067,6.094966128247424,-1.0642714863829146,9.547710915373472,11.776727232337121,0.3012458852286326,4.5538325266405515,1.4155919921936972,-0.37643183908405015
172,-6.623844875002179,2.2295030533169653,-24.22044030321192,-5.157589229576582,-1.5506195173154949,-0.34918471266837936,-1.3051847028620769,4.099578973275993,-0.8673874351064281,3.135465689991968,8.385695948717984,-0.20423124801418469,3.1659616706356273,1.8069353057154602,-0.1360071015990466
173,-6.299337480920665,0.2622787451225028,-16.29227024558463,0.33864022671520877,-0.7987589657314884,0.29823409461227396,-0.9502833839429901,4.521440983399431,-0.6954541234563232,1.7175839588620476,2.9749286917715128,0.5102230759288472,2.1597026150077125,-0.4058185236113005,-0.38924802307791007
174,-3.415637884986143,1.6121568204844647,-9.049143871230031,-1.944903614930357,-0.3680388294194952,-0.1466432810456307,-1.1949152543727117,7.281153306636009,-0.8091233323120924,3.5771838075208278,2.6933873272358326,-0.04825636416202135,1.2082697008040686,0.07754879384767908,0.4098016414290695
175,-3.631647171020566,1.6502425192657157,0.8067140976636268,-2.911274309091732,-0.39463053484511357,0.5510036417761996,-0.5095168001580221,7.774367860484531,0.34004871833413325,7.191038092069878,3.1369141770973705,-0.3626565096942032,-0.7427697223769867,0.25613090029625746,0.869101910112865
176,-3.9376897012672694,0.8009719581882346,-0.5342942022325339,-2.0834966493888523,-0.940266035653196,0.6771705156870899,-0.690228479295631,5.815625769253708,-0.44258157853348895,8.21047710906932,1.481039050015389,0.14313204698618576,0.9341443339228457,-0.8192116089276306,-0.25739134429299093
177,-0.7880824837385743,-0.6378168418469745,-0.5000819550488467,0.07892582687508115,-0.07258039363602178,-0.05120963231236725,-0.8282684232670576,1.0779935714710023,0.4543493828612145,0.5845754599770712,1.223020354202355,-0.05326304691740989,-0.5424969054744235,0.16598062033004066,-0.264958004593521
178,-0.36198179395077834,-0.7964868309778909,-0.6425148650356259,-0.2522707318785861,0.39346428330501837,-0.7430685860820502,0.12408077701915365,-0.38325771932645775,0.06489616151670743,-0.4550285386385514,0.47871579556416266,0.21644220234968756,-0.9241953088680778,-0.24045913923370546,-1.0103362688276492
179,0.73698545879417,-0.9491456368080033,-0.3113599872179503,1.0272669077944783,0.07832389142221222,-0.3575149702890896,-0.9424673293590555,-0.6177491634815581,-0.08080327412221902,-0.32285535070039817,-0.9883216281687013,-0.4974731888793545,0.3296516190534526,0.8208300136846708,-0.5745510061394291
180,-0.3612740252011678,0.44238374677502657,0.013837923040145465,0.7518750575788347,0.1940416359147756,0.25416547551272245,0.5401757233075709,-0.09895133854659524,-0.6584445111540083,0.7873452756395604,-0.5191986604420632,0.30200855227722406,-0.3634017681737319,-0.3111253637370229,0.16341107492870238
181,0.1854061870199421,0.6125467523999555,-0.26933218760882643,0.6146617363410696,0.6938726075039756,-0.9204159081016561,-0.536033694081995,0.2761734131303283,0.7784140879229129,0.7557926083845581,0.773854998463592,-0.3453096947110313,0.09931856075871906,0.6252129258814376,0.28437789175813466
182,-0.6530266079857576,0.2923830368241231,0.8584885681653716,-0.7112468240692231,-0.03337422550647025,-0.04198184816840699,-0.48789988169292636,-0.8703667649290301,0.6762937419247661,-0.6491067044106293,-0.32016225073856175,-0.7760923767611525,-0.5351096872015119,0.18842467058551207,0.2961236542798252
183,-0.19122501678332232,0.34160522643088576,0.5125068523524069,-0.04778148214191935,0.9691086408385157,-0.8645101020095743,-0.43372883743741014,0.26095290707740015,-0.4083547574296518,0.7357822438371531,-0.09890003851757315,-0.1877067297377056,-0.7554400714873566,-0.9149777814404401,0.5609605851014475
184,-2.4430273442636237,-0.7785081619134806,0.23731914040844343,-0.6616546529061862,0.649930145793832,0.6678599890070293,-0.5190044598309621,0.11337600023605614,0.669290242944407,0.45093430761159276,-0.7274562942808178,-8.951695324083998e-05,-0.654991646964721,-0.5393049721085829,0.6440760479013409
185,-4.383599329075399,-0.8400198492887144,0.03978928192150949,-6.080618708226194,-0.2658826391705344,-0.10929554217899196,0.2828012541474105,-0.9961072667638713,-1.5736266875485687,0.1284294400928723,-0.12997226020661423,0.793256710440678,0.6894207452662631,-0.7222704313238936,0.09904530055339521
186,-4.86504471434259,0.24380031975831912,0.7228933411969882,-9.134746893089854,0.7719548289966452,0.17748023452220132,-0.2597056028641677,0.7023139620291948,-0.28068556511383314,-0.46572944334635297,1.0413920096824123,0.834305202023392,0.944119286877933,0.5364972701224537,-0.3694334708359977
187,-6.573990202099293,0.5648931036848281,0.23942592910118024,-9.042085561729584,-0.7643070847399156,0.5028340786364516,0.3844604355982397,1.607841190999312,-1.3625496891201947,0.6423330987155318,1.9248959060765902,0.2787680672276549,1.0827630179339072,0.8730269480896573,-0.15112517447155493
188,-6.92183097900066,1.6429894497992539,-5.308951130505888,-11.17574283551923,-0.21348789090314985,0.7189611270230432,-0.7372583858571404,1.4058618614112017,-1.4517803350669731,3.8835781138185466,3.824305530941599,0.6899411689031183,-0.010991368714823313,1.7976051786181875,-0.53750704226932
189,-4.85607088691133,3.1715899610385407,-13.973714387234905,-11.270319801219763,1.0285934856929508,1.1552290497570383,-1.343894554989916,0.2531771988846593,-1.3915665016469074,8.152768528879745,4.468157260089022,-0.7449342926231206,2.63148895158744,0.2676478097522881,-1.352369699250374
190,-8.19791878790114,2.529802689864116,-18.237126144668903,-15.852761332302283,0.5226797436767313,-0.3058775606246599,-1.0479769665520944,-0.13392182863436233,-1.64049128759516,8.066346578925518,3.6223708786921733,0.15426434820450766,2.3263089815592117,-0.10221163599163571,-2.797271216241222
191,-6.869195446179273,1.302621609114516,-17.534278181201785,-17.387687062022565,0.2229906188300104,-0.6878028408043706,-1.7881297963386285,0.6599818573615341,0.4316625903019293,7.222216728181714,3.1968726881938423,0.07554721968223888,3.3497671396460422,0.020843710513342106,-2.071442889951555
192,-7.6589895751300086,-0.5147283338721904,-13.202884093024476,-16.01430098014475,-0.33769970606402644,-0.2851315935364145,-1.739289863316055,5.178576871335125,-0.27077747674857067,14.340571970135045,3.9651324124050005,1.1764507786837857,0.983943866962244,-0.5635451015162692,-1.0880453232138911
193,-5.389954708551795,0.6957816242713744,-13.751975197580109,-14.326840638183565,-3.2462114855452953,1.1432897453549455,-1.8271424222383574,5.756312375261917,-2.5024513723377666,16.321736584510177,4.332803597468013,1.209756001011994,3.402803943367804,0.31851805759875795,-1.7736817126117532
194,-5.435865559889466,1.1183312539292407,-19.53700464620911,-14.330708311448458,-2.4499467807816226,0.2931039532749117,-1.0221316320865421,4.894671447544422,-3.227075737559402,23.007285965113827,6.714309520028286,-0.016253881651601243,2.3737740116810553,0.3464121606157323,-1.1533031898422543
195,-3.5515626775378406,1.0855145184336252,-16.8823243263331,-14.725506532256745,-0.04285756039491584,-0.1886688399877332,-1.7030605267451375,6.435541329074936,-1.625460393672387,15.25805827339509,10.02588945391721,1.8134751273770569,1.1676099918417275,-0.31985143221932805,-2.4444307861038936
196,-3.451320069422569,1.610835598071443,-17.14851012330044,-16.72339244978603,-2.377871532005953,2.2496856273045984,-2.530283673834041,6.0907697230101485,-2.0720717373123874,4.145669825138386,15.656653190896108,0.1980566292576068,2.2175418610738253,1.3052046520418186,-1.7077835848300593
197,-1.4335972111640864,6.396520494288868,-20.970263257337923,-9.64840167236287,-2.9916086562072257,2.839419932564459,-2.6652200584985843,2.8242266749156686,-2.615916480918866,0.6919150820127002,15.3420173848808,0.4557791639477434,4.638789483352572,0.8275202791076901,-3.3356027847449696
198,-2.2224935070799017,5.813794808187052,-22.11757262128231,-2.8091622662712563,-3.604908571203123,2.4113736374382384,-2.5822193090959966,2.3972940782219654,-1.370128899634335,1.1035327009135598,8.782537987140088,0.7029608107902949,4.122864009035938,1.9419432522239375,-1.8639097383317584
199,-3.0193700506435586,2.9151705418184006,-20.700725801821978,-0.7448751708847614,-1.1976520959888384,1.1022917371068583,-2.6407590970472645,0.03365014862334348,-1.5328007291602184,1.6040639643577124,7.875488146732529,0.41301507673963417,0.9441222202952138,1.9598830878280773,-1.380514011177226
200,-3.5177184765445446,2.127152466476889,-15.620964440612344,-0.7824543231021222,-1.7564751975733741,0.17078768009964015,-1.1802009644891074,-0.15915709975720788,-1.0434695080027288,3.411693223344028,4.3295607275737265,-0.5085597241492804,1.6387408231356917,1.2409740841102224,1.204279845065543
201,-2.3624875431752246,3.0221437977989547,-9.74078432125709,0.9475891414632558,-0.494798562539819,-0.7604379210427321,-0.4543512303655069,0.3059417118745501,0.33076169686325285,5.918851695480459,1.1062324890649549,-0.2807918161001419,1.5162709882081185,0.513120864631404,-0.7130899410508572
202,-3.5737844275718684,1.6839874594107116,-3.332309215467272,-1.6981991378333225,-1.6530797284971723,0.5535118664456438,0.44164269077775165,1.2891650885749972,0.043607425195955764,9.102848251217672,2.091577996213852,0.030059460731396842,1.2560331050807678,-0.8539904867631642,0.1855121760376186
203,-3.851043458679694,2.9404583345395814,1.0075779646546297,-2.3239911000763995,-0.4301281530929485,-0.4691225649326284,-1.0907183989935758,2.10248791234451,-0.673907123398894,9.159847007391937,1.9165055020307964,0.636001515836747,0.9852303082430368,-0.35384257214146597,0.6047714088941204
204,-1.6531639971337495,0.4941639653596033,-0.3523602240624861,-2.3685822574675406,0.4320266353781913,0.7704744510125375,-0.9269043002725147,2.174004748266805,0.5775951590945982,4.5366481603346935,-0.30133268742556013,-0.2276394731985526,0.2650505699844713,0.45079518252871076,-0.6865238953632166
205,0.829849015919012,-0.41529810358912134,0.6445380270741193,-0.756763844467782,0.7195169296935563,0.5355080031879376,0.011401564708060585,0.386414033235444,-0.9280338124236656,-0.9017804408551618,0.5630893564482089,-0.4405302085915397,0.8668678387624419,-0.7546895870874998,-0.1738783967025561
206,-0.7786173687704466,0.049605976528943135,-0.6408575180316113,0.36806541042323404,0.3592200280713124,-0.34220693500215477,-0.5398992902403816,0.19947540117943302,-0.6218719052442493,0.820685450456976,-0.712746932479105,0.29844062502123875,0.0987599798808827,0.18521354440875976,-0.3669210649722141
207,0.9591366259309829,-0.47226013503163183,0.40594196049475795,0.9831919154173974,-0.12751903834504186,-0.08791347034432251,-0.3944483792680798,-0.9632882474664625,0.5344547121405469,-1.1315582729529265,-0.42462217175073425,0.681975025933909,0.7585967678285216,0.79230943775714,0.8641501817485655
208,-0.5612261163520951,0.4362660862307341,0.3247819431540747,-0.48154678637914006,0.17423232316079906,-0.09375135944693018,0.6467736070572142,-0.09505639065010163,0.35352891818768156,-0.18775519755135786,0.5367611351535349,0.959969301807671,-0.4999307480392261,-0.016483695618877497,-0.9303407673744705
209,0.43353455851836636,-0.828137160720878,0.6401086487217019,1.1295213674348086,0.3752744080946685,0.5105332518074787,-0.44490188775074685,0.9162486493413531,0.9859580237542195,-0.9823698652196984,-0.5021671266564298,-0.22738192165081522,-0.37268202776553083,0.5527669763973518,-0.6716084578218785
210,-0.3251700618402252,0.6171444347334901,0.06325056499672445,0.8220909856150651,-0.17354083328877468,-0.09145367359925193,0.11309733656209398,0.7510437929157274,0.5692468262387699,0.6115094691246823,-0.0843055316277614,-0.7697379057010574,-0.42886346953904386,-0.24888175917506555,0.8068068866585791
211,-0.39387051703514664,0.027882236024554266,-0.12101875640141517,-0.8165663868084105,-0.3099301589115327,0.5679968990266248,-0.5971089865349666,0.41675630332536295,0.9462781660427301,0.7267000215459294,-0.6852620057776824,-0.5067050072706262,-0.5731170587465173,-0.08593578129478012,0.791960203762698
212,-2.8872283644189203,0.011559068496943256,-0.08793767037214241,0.5081954223939373,-0.5797785275801943,0.3241935549568045,0.9738653266172709,0.04292954675166448,-1.5112787874831164,0.8199512363415539,-0.5302277561297732,-0.5023015960906475,-0.3333353807150801,-0.030053797661384333,0.27130498328053676
213,-2.824773367163525,-0.3260735741341117,0.5717919738531834,-8.991731140526415,-0.6339913814503979,0.4058361941462849,-0.3840053234080427,0.21602131714885203,-1.8200879333413824,0.2603211862459607,-0.026011119893600415,0.9436457254216579,-0.950318346790067,-0.3925061168438793,0.07253337269460344
214,-5.088742642162589,-0.542643975509323,1.1073395155807795,-8.793578260818853,0.8602540271811074,-0.06571925521890354,0.4269222907021887,0.748079991337068,0.06059968913288072,0.921780757807557,1.2440297769478224,0.7188894723984993,0.68559231270236,-0.1809440917343933,0.053752314607999
215,-7.401400761022885,0.4259745924273461,0.9435268508161776,-9.042134027046492,-0.7871537446900737,0.8081244544869242,-0.29833507579124935,1.72520586576712,-1.689761358521168,1.7909738525177015,2.233137176679569,1.8548062997061012,0.5617241992147972,0.12306564162309525,0.9507459917876662
216,-7.183318282157366,-0.7985228582869585,-5.505073634812254,-9.23071330476181,0.46649338527801376,0.4809278483846731,-0.40770455382579857,0.3828432506351276,-1.0216167951424862,6.204946062772267,1.9031411443934136,0.8818801079685094,2.147690771849039,0.5813104669529545,-0.03326449124670716
217,-6.012936386523313,2.4479057852120514,-7.584178302032756,-9.363246339205894,0.4816932517989044,0.5508842617022717,-1.2727700244073383,0.6201248388102211,-0.7432082066205512,7.47738633165889,1.9609478212996463,0.24063846080919643,2.190370205105799,1.2846410941889674,-2.5345023213598576
218,-7.973953749446462,3.2732089676573297,-17.599309696553682,-9.638605869587403,-0.7037547854544741,0.3084748077609055,-1.8340947622264008,0.6339515001725874,0.6654868314282774,7.447403530107974,1.9472639638649867,-0.4852648033018436,2.21928015898548,1.6750047277152866,-2.996246834536007
219,-7.370322142304264,2.315503331360561,-18.241122366876603,-10.068412679248064,-0.49987711162127835,-0.3151838087616312,-0.8625218381666762,0.7882900163353115,-0.8872527930786623,7.0679811301369595,3.1398113101908853,0.003497476878524697,1.5079486204160333,0.46127460973984835,-1.9211621123426015
220,-8.85127204433927,1.3249000690747639,-18.485703018567694,-10.361564638224923,-2.2676781372865085,1.1733380485211715,-1.2017177742830818,5.128139341477267,-2.0932507233488407,9.474984848330323,2.968610866646367,0.30847409463901554,1.5141861492545485,1.0142374168057282,-2.990161819614802
221,-8.34850978926812,0.8783773557544958,-17.2523815964048,-8.308558470734303,-1.957276761705873,-0.75083695308372,-1.875755719242179,6.218879795186655,-2.2942790672289735,22.647877519423048,3.3160696800576845,-0.6433758838190247,2.5093066864078812,0.4047800890219241,-1.921402157146474
222,-6.059004134933451,1.1038018966492618,-17.75126248789548,-7.845431847898688,0.45521400199988815,0.11987833447702756,-2.2869010059591317,6.341955527493561,-2.9991819420325303,21.87209025745844,4.386823216582503,0.7010112279491422,2.093469801885088,1.868556383950391,-0.7727227014336979
223,-3.8561394042124144,1.3772131058185237,-12.02325158774357,-8.677836270687072,-0.17583724509966261,0.3714035715087154,-1.4605065764658638,6.121190574989655,-2.336425178531379,14.015518665017428,8.55085475718865,0.9415984479008737,1.5832024247698229,0.581860155945428,-2.8852521340119743
224,-4.366158826340445,2.9814764482910414,-8.108913098888305,-9.653086990408536,-3.6501390429645797,1.3257120338168182,-2.169989113723371,3.964740379851123,-1.4804050094077745,9.505613534818103,16.628434977011597,0.30714082698171385,2.8771100973487345,1.1058720254983856,-3.2717158394817605
225,-4.759877488871446,4.813565200649445,-9.706955959133007,-5.471089846674547,-3.4342412473896515,2.0540572009285247,-1.3619531994290661,1.944765889533235,-1.6080178198149722,8.393306544430498,17.52541850220168,-0.48524827856100894,3.663306046959232,0.5526594250010806,-3.014729472231137
226,-3.36716566929508,4.805361004925535,-13.568267315754033,-0.3803120888122762,-2.373955955731603,1.629912279457243,-0.7105813463080499,2.550421667196068,-1.2313039122132179,7.810678364366416,8.232735171068283,-0.3954952613246106,2.039188452381456,1.223527301727678,-3.780483551885409
227,-4.343375872377667,3.9555115348395535,-11.874267006992882,0.7516050997327034,-0.3236236504209635,-0.19911794957765294,-0.002061677292930386,0.10909019672439108,-1.3844015471593694,8.057248329205237,4.742856286375072,0.7924591021587662,0.6231766628536102,1.7189417982909874,-0.49690739852856347
228,-1.5208018967096428,4.0018488299220385,-9.498728804600637,-0.4602678136710861,0.0859636602026046,-0.6166189065638322,-0.4590858497556145,0.09950773177740861,-2.0800517655959103,9.332529424980448,4.852008835353001,0.39770335199134355,1.0846740377490434,1.801346355447544,-0.2092277617595471
229,-3.827845082692728,1.6753911008368532,-6.28649847596403,0.43568925771922296,-1.549745324395666,0.5814255840928332,0.29477559602899206,-0.12173090961487658,-0.07028102762552157,7.849374968201399,0.6756850114231352,-0.2620399605259331,1.1100062809993092,0.4288135071778307,-0.8693163821341434
230,-4.099735894752045,0.7977387793583848,-0.04132777892422934,0.37069904781636487,-0.9582110282252762,-0.09382365498017983,-0.9731182216218547,0.748560455342277,0.9184575720042902,8.373097206461193,0.6862968001079163,-0.8211791753418968,1.8481818684133955,0.24335182040644887,-0.5282292560839695
231,-0.8262306211906372,-0.2780734457668174,-0.1474546337327517,0.4045602639309926,-0.7815398044313275,0.5153960749702714,0.8709739568605309,0.3204473981109529,0.6715773766509155,3.961997405717945,-0.8565999118022602,0.24730959649559586,-0.270293997812762,0.04122240039002209,-0.8673164085714519
232,-0.5737775810064897,0.6897514390365673,0.9149869096684773,-0.8389509540593254,-0.8256207894115107,0.7829956108872572,-0.8840603556451582,0.24601818107047185,-0.5378874929624624,-0.7312732350851315,0.18915600764764962,-0.9399917602096245,0.48202811106519217,0.42519111363530243,-0.7830274518903891
233,0.3175579094370659,-0.14479825709701388,0.10476333212828544,-0.33450810043437007,0.3496892036886171,-0.568439460697473,-0.8032846573270339,-0.8897983097713639,-0.6070638359746515,-0.14456135716439877,0.5481151351553363,-0.010712959285357607,-0.7501420987590086,0.18112218297362226,-0.4061841066717947
234,0.9482687438167027,-0.7119443656489676,0.924777763382979,1.128548570903376,0.21907160304422438,0.9599182934236704,-0.44108303214399713,0.04802840331434592,0.4753755338812385,0.854609223572383,-0.6123577631035834,0.7532346235122638,-0.04660158735296957,-0.8650794497577321,-0.6888673404867277
235,-0.6173981916506378,-0.8297638791427879,0.5774604349721728,-0.44707439056131915,0.1913845207315369,0.7897059758504957,-0.4330171705822195,-0.3746343617738426,0.26594937608272157,0.059555639773761826,0.5916816174509835,0.9505916248275331,-0.6912588538369182,-0.981669655117288,-0.8917782472343075
236,0.4879373961488466,0.6333142677592073,-0.5604968711591306,1.1176059107353202,-0.23624191479950765,-1.0202333532180259,-0.03041199876106511,-0.2544408024732977,0.7873114260342291,-0.46225195565088306,-0.39587241028298437,0.20537136794738703,-0.21976719126041444,0.6806621313272799,-0.9447488114323004
237,0.016318058918543682,0.013982756395196722,-0.3535219690333986,-0.26964346411481466,0.9556584561449505,-0.19271000939604613,0.7970352789663084,0.9236138840901391,-0.4952523117953155,-0.7914811419405837,0.7322642582900335,0.9627421783404475,0.1907978700193297,0.3066180653889097,-0.46755508793030404
238,0.048938511999343945,-0.15370257026084078,-0.21213089734491325,-0.3965416587511411,-0.8691349820634756,-0.9967269749378135,-0.3095839865635637,0.2458574463940118,0.09977186775289223,-1.026113281622562,0.2702230085191063,-0.9817587637126829,-0.9939001515767644,0.17634469549712056,-0.5780050532608214
239,-2.3074331015033263,-0.403076624177952,-0.12179956786442996,-1.1964224473947194,0.4405449215286422,-0.573344592086168,-0.7902074503655961,0.0659965340485831,-0.4376454385950223,-0.9680351798527564,-1.0499920207745812,0.9837024281077152,-0.07666706905346726,-0.5546805503249124,-0.9932215451814961
240,-3.5473578824531176,-0.269444813044885,-0.5132664989770602,0.8397818091623019,0.2866959549084661,-0.6398716121095849,-0.29260596149878393,-0.30274625329423155,-1.7455533551902136,0.9116850801688436,-0.750480939959133,0.1619467797040754,0.32184754010754696,-0.32328607116480756,0.039721080143950316
241,-2.7584395183946606,-0.7891099397968108,-0.006923681286852418,-8.70125431012508,0.5530821562083222,0.8565555730369903,-0.8751271885056927,0.38811877487127655,-1.6936999443664686,-0.7454625868008402,0.8588226953224039,0.029632207507772068,0.03296427165422239,-0.6029986908166678,0.8449172506115057
242,-3.40283622865285,-0.4954796209965845,-0.01356538060606291,-8.512185959270163,-0.6485939463400349,-0.9737700050720057,0.68329089821429,0.2510610516685577,-0.7967710222209425,-0.16313077401777493,-0.019937513770847293,0.2910085549567092,-0.14279012228047494,0.8529339749260756,0.3340080887819234
243,-6.350200641418401,0.8603579902340117,0.46074544284819796,-9.71843311960788,-0.2959305621441179,-0.36310823039003237,-0.3655789375677097,0.41194923259736926,-0.39333354819524224,2.851860848292462,2.939461703158156,0.8442297580403442,1.733683739056021,-0.7150735240629492,-0.970597608583027
244,-8.143188916972807,0.25240399958846693,-0.7859249403864622,-9.637211635342954,0.30403494222257943,-0.6532384278135497,-0.6609120356818516,0.8208203945409998,-0.8959873823220339,8.372127340137416,2.9098534380862375,0.48056873887435125,2.8715082693739946,0.8385657885656926,-1.8055986190132423
245,-5.8075112551452,1.5681919590495428,-2.1490210106773677,-10.895320578751399,0.48297593228923996,-0.3447801719016567,0.3070915593474514,-0.3069520588965583,-0.9941962002998713,6.7254240329786255,2.178012179472924,0.1282408935861757,3.5350789859817873,0.4732133477643061,-3.726326165691259
246,-5.532807434386736,2.2405318548337125,-8.839377711268105,-11.276807100669874,-1.4192535949996168,-0.08862319057047024,-0.5575802856970529,-0.18666744332230764,0.3587840140517727,8.818488641060727,2.7913799677268774,0.1998021625918558,2.8918811739710986,0.7305125960916874,-2.2014179222980874
247,-8.98341199614581,3.3399682332552265,-12.750536292894777,-11.247898498204343,-3.0932770450916376,-0.47014963897820927,-0.3943628943892258,3.2059560528316244,-0.9690491971926283,12.868391969766144,4.187246019759463,-0.12293073792427958,2.1943436506556804,0.4196114763888066,-2.1858550605366096
248,-9.220208649520387,3.7492478582439626,-13.684078956222324,-10.625218522974865,-2.1156637457826224,1.0407268065220117,0.19368391715918376,4.758626893023729,-0.8073085036516405,14.202548183121444,4.4261055117178625,-0.14452473045543165,1.5127680464357411,0.9480771811708237,-3.2863656573447457
249,-9.452139597802981,3.5876595177343225,-13.056567513052931,-10.922443550367099,-0.7800244847760404,1.9347257774576212,-0.4273124855921404,5.902159294064842,-3.159878741825617,18.678143618621892,6.12507239978107,0.34020311443246676,0.8181727402375643,1.054440449981542,-1.433814260719575
250,-7.995335994449663,2.4320499615090516,-10.074449076157894,-11.22976447469145,0.48678235084374627,0.3160167238506342,-1.5908524221353715,4.801267605283169,-2.0759151045899813,14.32561874644047,5.206226117344028,0.22572885383452168,1.7503495451976852,1.0329896433713663,-2.384512516185011
251,-9.78030016244525,3.696557930983867,-10.566626237148775,-10.059852141348237,-0.6953936116631132,0.8408334917453568,-2.164458817300602,6.538226872639472,-1.5319695308426389,9.316920477302736,8.593570099759495,1.8632116091007507,2.037008576430983,1.7426841440838772,-2.6270554333972935
252,-8.755077274330754,5.803386185051778,-6.998113837759248,-10.578189555052768,-2.162809955941097,0.47206821261414444,-0.4379657923075282,0.632944900702803,-0.49986184601193084,8.911785020757696,15.558115865452827,1.4112046051536522,3.462121718831067,1.387858959952846,-3.7109852660225053
253,-9.416778556334243,7.041145691752108,-7.0057508551413745,-3.738861244809071,-4.375219692513903,1.4677183523232928,-1.3969187349015058,1.8764730909231204,-2.678525506897062,8.372124907323414,15.979525714350563,0.40029232363092093,5.155945841747827,-0.00045258719309786664,-3.8274380750522523
254,-7.457558885459238,3.4362655210692497,-14.11307616563592,0.3819800484173703,-1.6055105826832132,1.7442049874261385,-0.3677848593705795,1.572259364953885,-1.6810234202875272,7.6558554359857816,6.854294089586416,-0.8313630280627774,1.6944163391533487,1.1078968095304802,-2.7401996782616864
255,-6.32384949419758,3.9812301148552978,-10.85134615680727,-0.2573656071738252,-1.5297193559149185,0.19279534668434722,-0.4718389254781231,-0.5601960921570335,-2.1506274402113883,8.740098869371847,3.962912922668881,-0.5733819532132866,-0.0027564017283464026,2.02780441190076,-2.2806684860788136
256,-4.8300214023431876,3.622086876658751,-8.047374145663419,0.7152490350408759,0.13139842489456033,0.21455948324525131,0.6178312507817386,0.17330936508968825,-0.2275280473480935,8.181928879002182,3.0048513876340412,-0.27600383322761535,0.4423470329632233,-0.6576835051214891,-0.7354596852884856
257,-2.5229386428815546,1.8989063999128812,-1.7453250940873475,-0.06449488561413996,-1.32116002168855,-0.5684022529674586,-0.8075591108335611,-0.6985978215003678,-1.0406586297244436,9.16831776135658,1.8764216641926244,-0.6913201606311754,1.7119488014113904,0.2193911798789539,-0.9447538182331985
258,-2.2295307984079464,0.4620617541092634,0.4084797282688795,-0.46411830718925645,-1.423803703589098,0.8620024570510495,-0.9639014650413124,-1.0414996500604188,-0.5685616365459022,5.599498767427432,-0.4780237180973582,-0.4579297677894883,0.7291389080226849,-0.2629407384674913,-0.2132752929445364
259,0.3901363352091545,-0.058805702679553665,0.028798573553416293,-0.6862996690165709,-0.12981022165080108,-0.8341288742338598,-0.42602548704632126,-0.5971222467205678,-0.44111843243965576,-0.25899963425088157,0.9453976887404313,0.9500697023672259,-0.6360139688974304,-0.10554322524521298,0.6232255949958642
260,-0.7567392374670235,-0.019106088772706864,-0.014308680475100713,-0.3999520835778606,0.21615783239049363,0.9692860043675182,-0.6184732882887115,0.5832390702715491,-0.29396964762800254,0.1276099736859423,-0.003645960543389285,0.8518504953882481,0.063432201568425,-0.5961424822850686,0.7733501279862639
261,-0.3545977598940061,-0.5923671893007398,0.4412636498336432,0.8841138656677002,-0.4455904631541518,-1.001692374482668,0.4019877770465443,0.664136895695071,-0.38318100528418764,0.3825775883230834,0.489495583503737,0.6848279525246616,-0.4724048822796162,0.3005728444687443,-0.373659316432525
262,0.9327157240726435,-0.3199298063450675,-0.6042007931657156,-0.42867264749767986,-0.2577060747869159,-0.847683073614495,0.6937545957164234,-0.42033927465050025,0.49490221691157216,-0.9464231430370817,-0.7109369197959114,-0.9102910433295938,-0.7019166343736131,-0.25995467161790614,0.4763556165532085
263,0.7238079295785208,0.5130377479078156,0.45296094892211153,0.411976337831914,-0.12034428027550634,-0.3073561423184664,0.8369443034609519,0.4061918284516418,0.41395198695600754,-0.5119811420310992,-0.675500734367087,0.9386274708846675,0.18063522295769316,-0.9750938073135339,-0.6299662111376192
264,0.9622778722342107,-0.6613190446579418,-0.46379338694979816,0.48983683102027964,0.8109129662329179,-0.9925816185846484,-0.37408862281350286,-0.6730540621970877,0.2841710051679498,0.5810955718749742,0.7078447589336011,0.7699225111588366,-0.9947652934072537,-0.6953841620886433,-0.3157781580000965
265,-0.3083065016374935,-0.5313826233235062,1.0740207904556631,0.5809640130091059,0.8985013443966565,-0.6286373399408394,0.5293892073544643,0.4050518230693317,0.4173012095687409,0.8149869121174557,0.6888532227516386,0.4869267800194607,-0.6112789298454175,-0.3064731343268894,-0.6112610008341697
266,0.09915174218894236,0.02606723470651088,0.6338437471716638,-0.9478524456954194,0.8501099560238525,-0.3079948701123896,0.372992180054378,1.016090117135439,0.6532032534431125,0.41691526419169417,-0.40857314096086966,-0.04120485857451759,0.43491340114652577,0.031190375103332814,0.1052320731622709
267,-3.1954299877110923,0.06267410147771624,-0.0913417868444153,-0.4129092949613903,0.02482772865800642,0.5311689704657631,-0.2345226428602792,0.6261084089845825,-0.7567775631829127,0.2557129107607791,-0.5127596507011416,0.7273796647030565,-0.3078097856416051,-0.3489318228100731,0.6050015778598521
268,-3.166514126424265,-0.857084028273267,0.18255151059982339,-0.6047652111941338,-0.7529950321593456,-0.7974342135251206,-0.30426236247603045,0.02297580776624711,-1.0721704751649872,-0.6889592880178124,0.257286758409613,0.9738770312539105,0.6625258992018753,0.7995564252148823,0.25067780157017927
269,-3.441301277142334,0.4673118706085919,-0.6333087707375953,-4.6051399478950445,0.049937041719900696,0.7464196725506674,-0.3478913786751923,-0.003965823012594877,0.06934739241249721,-0.5653602826153012,0.2612909377069715,0.17958985634621857,-0.4164520882021032,0.13936633042012947,0.008376797051842255
270,-2.87432056025754,0.2899602150728896,0.8771043392200353,-8.637568018784835,-0.1995175926542697,-0.6979290130836924,0.8279642231831742,1.040086229734102,-1.7378287158553272,-0.7152882716577472,1.3782520869013746,1.5810087530004284,0.8939961194132011,-0.24910870758055617,-1.308402622771016
271,-4.835159622771073,-0.3289543426534612,-0.6127910072341883,-8.214017132130927,-0.5538467648126113,-0.6588504171993493,0.5470747637123505,0.24737762510244532,-1.5140201949561682,3.6243353424565354,1.734915860118637,1.8833013147554465,-0.11773484421350511,-0.3166975461956393,-1.961057262475575
272,-7.148528431499419,1.8348953320683503,0.02962189748545377,-9.36182635587074,1.2142467263935777,0.7996120215967569,0.17173885352923546,1.5745399917824028,-1.874902286137118,7.1925924999370645,3.0120108163421353,0.6145259445710035,1.6374749478199684,0.8554626083408985,-2.0587749158995043
273,-7.867230505684391,2.2667382524854953,-0.15615379951721603,-10.465598984472942,-0.7128335530054347,0.7178158972095935,-0.7999683302645727,-0.17501779527604655,-2.085388420035687,8.388440376303935,2.280728223994687,-0.1672282275233884,2.468617370922969,0.9099186897892052,-2.572006461179048
274,-7.963286400471492,1.801420605709081,-2.598742309942578,-10.555047292982284,-3.1210533155911726,0.2452380218430562,0.5633851591938732,0.546285175218189,-2.1846356017909,10.0807919496344,4.421324727298044,-0.3393327635685659,3.405927314870224,-0.07252579669592946,-2.8563283777418262
275,-7.7319908206757475,2.844999727389519,-7.498744689807846,-10.276335888683189,-2.8401331301202672,1.0107673036386435,-1.0601211419335554,0.47202882069221935,-3.144760068357998,11.926572902735519,5.437836205376255,1.0624587257763163,3.2285808549632242,1.1811692238792828,-3.2482242063426345
276,-11.083286018261367,4.200963012292252,-12.3251567442674,-9.772923220880225,-0.8330834274888099,0.557949573547689,-0.3838575853535683,-0.1491185640449413,-2.6801803399033597,13.09983591346972,8.39576694577759,-0.3007227146799747,3.4085040140129954,0.982953001250157,-1.733294360479342
277,-10.737776968857688,4.596796611001018,-11.35475562938972,-11.276852764421252,-0.2165882550798125,0.9694021789847214,-0.7678163610035387,-0.04940852159322191,-4.028635978542799,13.552261307104219,7.019275575740769,1.1275708763269483,3.2827624158276234,1.3883438713112963,-0.4998689983877245
278,-10.9626631156236,4.38127550126932,-11.744609095311295,-10.655852119016856,0.3962813233630728,2.0013602198017164,-1.339372556144972,0.0031795836055363014,-2.6371710197465896,4.716749306143333,5.953549899630608,0.10332968763360795,2.8389355949058466,0.46964249588160545,0.3440859515384206
279,-11.578309796510728,3.704814776446416,-11.635920917407368,-10.49697716761455,0.23208343541347243,0.785653179458032,-1.1094554502554574,0.5802893310673567,-1.7996761029327326,5.03858763602684,5.085682722349557,1.7715999639296591,2.078261550402989,-0.39207191176856676,-0.16748268168573643
280,-11.670608417853405,5.293816908799877,-10.87874711283709,-9.337650945869594,-0.09082761158301172,0.9700064054660948,-0.5488917543225164,0.7076700191852923,-2.2903326951667204,5.741059183248472,12.232721975870518,1.5583430569474612,1.608523490612878,-0.18272602906345756,-4.065547273245244
281,-8.509101646079504,6.203632828893859,-14.902522114460178,-1.3072295375738263,-0.756539977892674,0.3597185107953993,-1.0021471476755857,2.6564508204275077,-2.9923071035127524,7.527225467817975,13.46274030266336,-0.22067297127225804,5.5473315047386755,1.5967390339786371,-4.542331043157828
282,-7.567794392644653,2.5537125119346396,-13.436105044468173,-1.251712368574788,0.11961908273157595,1.4142305877542218,-0.6890903598199739,0.07214164062180362,-1.2350812639315671,8.726519238075788,7.469434062703334,-0.46309055902844726,0.013652224773233468,2.23027084168433,-3.5729202597780887
283,-7.014369009311754,2.1078021600380157,-10.652538820100537,-1.02905073332152,-1.5721866296539475,0.14736700683812198,0.7461451959307165,0.8979014710019467,-1.4658308434681557,7.139878767151629,3.8382044028970275,0.34448509746146333,-0.6122155909663829,0.7475899257378835,-2.5137012810029447
284,-4.154393836711128,1.7492111851823817,-3.6568578212912213,-0.5900763659659564,-1.1248789009535594,-0.5211537035107211,-0.8530794706956177,-0.7708306758179976,-0.12186405915881382,3.2691759906272795,3.5963565596298945,-0.06330275194324371,0.20222192797239358,-0.8744058987258304,-1.1209005002561687
285,-2.397519067125014,0.293162127936519,0.6853129741113486,-0.24395519837563748,-0.5471561475331372,0.7046475662958133,-0.23376931500104461,0.7573628966927886,-0.16898521471609948,2.2492969655890036,-0.02249769972787341,-0.3789662497457577,0.9940337448238794,-0.044034747644915016,-0.6056550513906906
286,-1.2075823106781796,0.9310510707384401,0.5484766582185495,0.6591163329737426,-0.9285704526660163,-0.519215465360429,-0.1096826817386806,0.36889286034303737,-0.4364255763957732,7.899073272390324,0.7299594792149123,0.7642211749011096,1.1034852888953846,-0.07260293018575789,-0.7246102854908087
287,0.1330408248368511,-0.5741675410334854,0.16249828886948034,0.11275470866269724,-1.0194646355106953,-0.0003533363033669419,0.2690732588744568,0.10871844301148238,0.5539565750487015,6.751749311703431,0.961963592088459,-0.9671477651787769,-0.25476160938845366,0.756803106824857,0.6964746198676584
288,-0.9165639526268897,0.4107031044939865,-0.06234410571825301,0.6464821162393705,-0.6374964896635568,0.04810441171821496,0.5939539733638727,0.870453668068177,-0.7260654928057433,-0.09484946538365302,0.31732054860932735,0.35344027031011255,0.4787744701461682,-0.98979442037935,0.17693956150169887
289,0.16331225455985393,-0.4934162095974263,0.881506069715915,0.25893436387198765,0.651798332498395,-0.3154439235750548,0.6593950536383558,0.42036441351558307,-0.11888997421812747,-0.9299118164735619,0.7755936653972929,0.610407403642616,2.781440351423949,0.44804066133568093,0.8461845406904425
290,-0.33153004943131603,-0.8575314007634987,0.7709587339154629,-0.43001775902907535,-0.5741352467386186,-0.12641704641941198,0.15897017949193143,0.6493875550422977,-0.28084281732681293,-0.6350110126948149,0.603354905640237,-0.8142926089578713,3.3853367159753676,0.41568742969667666,0.27324076583372364
291,-0.22165799488841403,0.7871964346217871,-0.03451194975954419,-0.34381156428571913,0.9080774827481704,-0.1597038143995286,-0.6374265753864468,0.9074079563728444,0.6764891402650457,0.6861452499671437,-0.528414051473123,-0.9952079425831898,-0.33481026549508774,0.5316399485759955,0.7699312943144959
292,-0.0688957224989099,0.4223102542635394,-0.2935425968845252,-0.6337724146146944,-0.568585861090916,0.1988148918986504,0.4429994512642965,0.8959636445112148,-0.2974605231756021,-0.9079083969612868,0.4826010965106169,0.6202219935689898,0.05485834952307232,0.6663441279885705,-0.7078138447287436
293,0.299575634904766,-1.036088325476412,-0.6724168119761341,0.4918341918203238,-0.01828550604121125,-0.5263921033154989,-0.8553678681066287,-0.17341957212879994,0.49665761766383665,-0.3554308374410192,0.21736303508888072,0.7725151811669391,0.3685199328259832,-0.44380950644561207,-0.8216845896977472
294,0.7143166726379598,0.9735031430158773,0.9178219611650962,0.3990867716527482,-0.10906729391343645,-0.17762597547048894,0.26003917788647557,1.524011984085822,-0.34260435763714736,-0.045842917403665806,0.6305520621981517,-0.06732231790964041,0.35823788070953516,-0.6497456699459533,-0.6253195343124226
295,-3.200920993732275,1.4997864678615636,-0.584423571187624,-0.4964197342565412,0.4482530257656938,0.4475745994056182,0.4660300524066488,0.5385727621929045,-0.8806104882016978,0.8090432223515944,-0.4487395964126477,0.6746607337835959,0.2562905883324894,-0.654985330022922,-0.6256420434405464
296,-3.42250475644943,0.5471825770794313,0.6423020536083013,-0.34847620852319994,-0.8616026371751639,0.017164457530778734,0.7042568976978817,0.6117770780458494,-0.3583383409857981,0.4175709227711483,-0.6377253198855525,-0.3481472746858932,-0.20131906946417538,-0.07848244213598539,-0.661342713567855
297,-3.7025785764390102,-0.550644697643419,0.8217904540305752,-2.5281704689905418,-1.2367962738649128,0.6911676593757327,0.5150531605088864,-0.4412715347091356,-1.420500676908408,-0.9238011714853377,0.0920591576622473,0.8685966022885484,0.9410268616334535,0.9040060850229714,-0.843595791688678
298,-3.553426375823525,-0.6034733636436902,0.6368819200514734,-7.328687228543097,-0.08958629966000782,-0.029311848850910018,-0.3263839209026576,-1.0050755517809569,-0.1706443084628555,0.5916074269521431,0.9923898475567088,0.04170524035628781,1.848825602315889,-0.8735033784767411,-2.6737077375383373
299,-4.888013017461189,-0.5138436267592452,-0.316744707954352,-5.573652809065987,0.5194773437207911,-0.18652580904047428,-0.7483051793655152,0.050280938471924774,-1.2015193552727361,3.1100523200328434,-0.4205568783371595,1.5232690063249452,0.48709467016617936,0.7802279485300991,-3.038943920927754
300,-5.326951508306341,0.6917531582055868,0.90502570112374,-7.7125533017424726,-0.3833663057302399,-0.3166996169896933,0.8065915218094224,1.324123661329199,-2.0483751696217394,8.05549127222611,-0.4728181797015182,0.21148619883296815,0.9129490523510787,-0.03227283246836156,-3.052544847030957
301,-6.039174213504042,0.6340638827125751,-0.12859818809633938,-8.964023469361043,-1.6722782392599997,-0.1612088759017708,-0.9540382916737048,1.7202661381118418,-0.5526878144000713,9.055820663960999,2.742321334771015,0.5425859375817128,0.9951004118231892,-0.7685655763279331,-3.8230588121467486
302,-6.60719685935651,1.1881168412069316,-1.1286300922752668,-9.541242413575132,-4.009893614673101,-0.03528842289196368,-0.9648205222438262,0.7750355885693063,-3.1467558345194373,12.782100776279075,3.683881143593296,0.09179128790123148,1.055257812797825,0.25694926312819333,-3.7323958396863524
303,-6.565019345760027,1.2116322017213887,-1.56945108464886,-7.61866000221817,-3.647786178680372,0.7287649663966643,-1.0924164512542733,-0.6611039666215395,-2.21171171805396,12.062039604569552,7.213813337439323,1.8871660794461917,0.799363589878106,0.7103687540536198,-1.9658623708202847
304,-8.946319323585366,0.9892277021085694,-4.888827509028109,-8.117517565238234,-2.9852165725585866,0.7328888517352763,-0.3939734774425498,0.7033115830460156,-2.0803302779153343,12.06181952450564,6.2169115114939135,1.684136938530728,1.488453332251775,-0.7788418611068595,-1.1974958231327877
305,-10.687772725439773,1.5762560819327072,-5.295391217797548,-8.181154595599738,-2.4082843468856394,0.9603371521840964,-0.6675624201009992,0.8497041928437601,-1.7296852993820124,4.423744459550262,2.9110667114190827,0.5290644996081597,2.651141794899284,-0.491177930444689,-0.8138738797848328
306,-10.525422925670847,0.9275485198977451,-9.352696379010961,-4.2640174373661734,-2.7993333056128122,0.3549519272631002,-0.26774954253132965,-0.781367807536156,-1.9526918560069326,1.0755077639106905,4.846772088869614,0.010893751638296423,2.3665211639020995,0.2575602716541512,-0.43774963255155486
307,-7.719894999530784,1.3669067181292234,-11.524434737037371,-3.68005336443788,-1.224416671949421,0.6666163104176285,-0.41030844528061594,0.852787297460059,-0.7777225789022897,-0.2604371269682404,3.936052774674218,1.6927850081696958,-0.004592076543370335,0.8903462020923026,-2.0118092037231294
308,-8.66394859251038,2.641243489229155,-13.952638949936514,-1.6317143815751942,-0.7957816091762064,1.2879413532601647,-1.2677283144437426,1.260353143352828,-3.4493570431730296,0.14712766185691012,9.282113867966528,0.4015797991085899,2.1806639361966886,0.8241732918155761,-1.621998924090806
309,-6.728702060771188,2.709100719030161,-11.609657635887672,-1.6730802636337403,-1.327220001057,0.11426374699146047,-0.35248227822998945,0.8614987718094622,-1.7576146958421204,0.2541780518118191,10.456940897941646,1.2503236167104181,2.5003450455419705,1.6689508573208993,-2.8719142225977365
310,-5.952540104109268,0.34167105008654086,-8.406024873477657,-0.7817462360800898,-0.47695967174871423,-0.042585388901484444,0.814695215958497,0.6607964125622833,-1.842317298561599,-1.0337286657907963,8.591319609928311,0.6796796311911562,1.7078727738580401,1.3719466397020972,-2.567855554195015
311,-5.447555903964932,0.6022284610417742,-3.862348247955369,-0.4076923974991722,-1.6682631911287071,-0.6674191944954513,0.06780557246939921,0.3799572821544742,0.08862845107957629,-0.9379968664923661,3.21141032223831,-0.39711624782408644,-0.14680706831176787,0.04647613868587519,-2.8341248221396063
312,-2.4942880132336778,-0.0199788624950063,-1.1974013425659145,0.897932885699088,0.03757971442686292,-0.4132656655165081,-0.7459777538347077,-0.6742325880336646,-0.06780708103435212,0.3203917054409039,2.664191444550766,1.1630841590670555,0.1923697451092714,-0.6306420346554458,-1.5296978143736675
313,-1.63138195833288,-0.8252191716897406,-0.10808198083854972,1.0011711164141073,-1.8280046742642442,0.5680859159334941,0.34696916276958256,-0.5792255985251759,0.33796730686589826,-0.053291810286486274,-0.32090352371633424,0.45152114295151435,1.9165232813129538,-0.5727706724372492,0.4766107358541246
314,0.8639756891730371,0.3923383973716025,0.9059932388076604,-0.3057793048547851,-0.14719838389787787,-0.4975692510634594,0.11368741265221957,0.5848445615108324,0.3218106860886705,4.363177120351105,0.6880296603675429,0.2379735489685615,0.8940285611425927,0.6066784770325973,-0.49530654539107294
315,0.613342927784669,-0.6104668824489626,-1.2609297655117124,0.023692857909970735,-0.5088919657963534,-0.8195274375823967,-0.8071805564771114,-0.20714023484054028,-0.2945233476741573,9.925676230192899,-0.2820167068535476,0.5622649990667506,0.8317250649136677,-0.9726571240156988,-1.0882976214222662
316,0.3610862963535517,0.36479131000350584,-1.7217112235096232,1.0615580638627968,-0.9586225477337857,0.3556937232955999,-0.01909166221224385,0.187891553171576,0.13515444558493667,4.139666013728705,-0.5470750704624626,-0.9038876164631964,0.01330496230370598,-0.4840053142314086,0.14443808716852136
317,0.7162238825393272,0.3507921332363825,-1.426167692549293,0.9034962345105175,0.8213857521449527,-0.21175069858700485,-0.016239368133902636,-0.4429644217679336,-0.5973017264657062,0.02338240129358903,0.7366899523867193,0.6636716904809207,0.14732440280490655,-0.9633491428047413,-0.3421204085802011
318,-0.8698955379891429,-0.663693883081289,-0.4721688481972617,0.08803621169586182,-0.4745297907315353,0.3816037413031017,0.46375328709368174,0.16539222953399688,-0.22237674868961638,0.39818565019985336,0.22648803754051877,-0.6495455725305731,4.262658656120416,0.48638340935310664,0.315714367413199
319,-0.4625977675485172,0.6716242882743476,-0.15163658994867324,-0.8542677072578554,-0.3820888666376571,-0.41569323848468276,-0.34173564140106794,-0.08466300650155682,-1.4181992991334587,0.010533932019138187,0.3186411815127949,1.0805425857998125,1.9403228987154286,0.15630408993299963,-0.024408894254156238
320,-0.04148760079337618,0.12749960687675452,-0.5983145888037705,-0.5769286628228095,-0.2958469213186716,0.3165803535876222,-0.052786426916337253,-0.9574648118008324,-1.496304243028825,0.5881030743019215,0.29384792356981587,-0.5369231696123807,-0.7992786760705115,0.8468678460363549,-1.035037359417777
321,0.7847388193864854,-0.2616733434841995,0.3615109739121686,0.13028170269151096,-0.1737061585367073,0.09917157219707812,0.006695315494242401,0.6689523562894251,-0.05147521816561196,-0.5805027666932281,-0.1637934100627136,0.7686656693403011,0.802010141922821,-0.5752201684935915,-0.8700488088718108
322,-0.6304066211600539,-0.31889393933906557,0.14273287219726843,0.089404884478133,-1.7165350242815878,0.24242292046724148,0.36787455992546486,0.7053872037314284,-1.6896074622902377,-0.5300341639336864,0.3641850965887813,0.9290897244584967,-0.9286044868923052,-0.894236918327103,0.45394488523667886
323,-1.1055114475975805,1.2207240205233993,-0.5562510665118534,-0.5732056558460229,-2.310038795280181,0.04884518598138896,0.8566069101435057,1.3169555401496882,-0.624441800028606,-0.5712120651408638,-0.06764464228614289,-0.14425694138779102,-0.3794739144763001,0.4721503143641678,0.9021575852204027
324,-2.7294226333458087,0.2476264247351878,-0.33518491798224054,0.6019006367040514,-3.25627945746583,-0.24694090231607418,0.48280107037509185,0.9938833173899138,-0.8672195608210795,0.6604375007866516,0.07945604180886251,0.4752707448420295,-0.12745186613247295,0.6640161901008961,0.3899007044055556
325,-3.512751485877039,0.7549983444812409,-0.25968567857103414,0.7071371183499112,-2.3317132553360187,-0.9978113366412388,-0.5725114130308389,0.9358007556980419,-1.3644482596040237,0.38711417287999417,-0.36242205953487266,-0.9000755996993932,1.6636127267453578,-0.008058814843808541,-2.096759036697301
326,-3.444929431313547,0.16330513707675545,-0.5110349809848881,-1.0355822886956576,-3.136408106211518,-0.46943175038709545,-0.19205702781258568,-0.6745466787005067,-0.24314239932806322,-0.4259615868497795,0.47105506332083213,-0.4579151478808966,0.784445146312518,0.8882499053837424,-1.692377266866856
327,-4.14625143587735,0.8330236746419147,-0.5788201272076787,-0.8613349867922624,-2.7734818787280613,0.28574906625943364,-0.17886333685806824,0.30451518863293686,0.8948159326790878,1.6196113199330409,0.6210871212536351,0.39158065866310754,1.7504695934037646,-0.6215231842641886,-1.9130246761502208
328,-3.6867127150704464,0.7957409015371482,-1.1235933763517956,0.1336869715558976,-3.014242859133689,0.06367122628925373,0.22871511457965205,0.05367367623353059,0.5971207310143801,6.830469449446713,2.0515646518012436,-0.4848110170328082,0.26236281274534506,-0.8704101919056939,-3.0739008321570216
329,-4.137083832304406,-0.02999484327224479,-0.49101147813679735,-4.12918969764521,-3.011221696580844,0.8573985472339867,0.42886056281927454,0.26526402773587265,0.23392039195931386,12.162620354227641,2.2826701628258226,0.5883783008950287,-0.38305311509264006,0.8335669142600846,-3.258190611857725
330,-4.1697214878215565,-0.1359440960575194,-2.2291592695491707,-0.9901454289235592,-4.672846744289065,1.6180237547435474,0.0444814746234552,1.7819247509603617,-0.7118494952903867,12.6318727839296,2.1342102820263062,0.7929585619191394,0.19248351136375985,-0.302684110268747,-2.255878793139873
331,-4.160693299230525,0.790200043721693,-4.511264153966616,-0.22104486544484026,-4.564471391744542,1.9734553322269424,0.2551733622894433,-0.5444360873700551,-0.5232103003608195,11.371108776108247,4.434712109649112,-0.31804278778580825,2.989587658577096,0.7320671192859448,-0.5794668670038664
332,-4.598793039490135,0.8262285229826046,-3.6922764166841415,-0.12782669758348109,-2.456260165078314,1.3846805325472307,-0.985630860419719,0.5743341073458226,-1.2716972274477945,7.10859784250907,4.848233078486929,-0.4030615153365549,4.150573994959578,-0.7720295839641573,-0.955524865193292
333,-2.764337918249117,2.250630935183296,-4.490713523705863,-0.12924481132844756,-2.7324657671125725,-0.4311380219163503,0.06943213497519503,0.7822780266616618,-1.3970786432040692,3.716105477693567,6.1804215945946535,0.010549894583366859,1.912592044711849,0.678395438993966,-0.6166507995589274
334,-3.0699253616654794,0.6748618388360097,-3.7625955960064803,0.0347782787185118,-2.603765650836564,0.8679663687218246,-0.2628143825419313,0.8293545973127294,-2.1677930328261015,1.6927396399577133,5.52248340890711,1.8017152792675715,0.6254427453143925,-0.7369068606591159,-0.9655068450311806
335,-2.2882413232292382,1.4211550662573853,-5.6180765250822535,-1.1188936279521735,-1.765463238186423,0.6829377651437775,0.48234467215978283,0.24268133937815567,-2.5890595721793064,-0.4363974435437265,3.4517296547602463,0.3515571534416737,0.7675728963489518,-0.05299065065768557,-2.0718079794996953
336,-3.671081637064563,2.088427313709329,-5.345088175893269,-2.5594560407793745,-0.9769079668778532,1.50231139436999,0.9567433538867868,2.716206887112791,-1.8587088632400501,-0.7618435573132298,4.922462042264271,0.4557273352112315,0.22211674324041009,-0.06810542966238553,-0.5395250989918454
337,-2.8144702022683594,1.9084206575182223,-0.8032702952549073,-2.961463732420267,-1.3847128106637299,0.3909115556872278,0.25041930259310075,1.7333842490458495,-2.569343868308141,0.07226126660164837,9.523429463501142,0.8532767566804695,1.4323582629842269,1.169728085719565,-2.3612821561328294
338,-3.5485943096253276,0.2554434466592023,-0.9838749435574453,-3.0897576341699526,-0.4483298112100458,0.7936625665389369,-0.6664724106376587,1.7572096199337444,-1.7961537402753178,-0.4830534136714332,7.270149741495618,0.8762923557579727,1.5780833672314323,0.9382016212116084,-2.8735714800154213
